{"embeddings.LayerNorm.bias": [0.16954053938388824, 0.11112432926893234, 0.006444645579904318, 0.021633515134453773, 0.04279690235853195, -0.03980178013443947, -0.029967835173010826, 0.03917836770415306, 0.016793983057141304, -0.20974214375019073, -0.010802953504025936, -0.14116311073303223, 0.0944763720035553, -0.11972466856241226, 0.17308099567890167, -0.027716241776943207, 0.09435634315013885, -0.09847797453403473, -0.10690344125032425, -0.014287482015788555, 0.13354800641536713, 0.026531092822551727, -0.03455251455307007, -0.02378787100315094, -0.015992717817425728, 0.09372114390134811, 0.060021985322237015, -0.013411339372396469, -0.016432059928774834, 0.16168920695781708, -0.024443406611680984, 0.05020848289132118, -0.03775523230433464, -0.04188353940844536, -0.0016780489822849631, -0.017452526837587357, 0.011894641444087029, 0.09242060780525208, 0.04313269630074501, 0.029258999973535538, 0.03679778799414635, 0.06918390095233917, -0.007919118739664555, -0.07960933446884155, -0.0768631249666214, 0.07889702171087265, 0.016182098537683487, 0.010741889476776123, 0.10006725788116455, 0.12470310181379318, 0.1703963279724121, 0.01055852323770523, 0.04074260964989662, 0.01427485141903162, -0.03946197032928467, -0.03575410693883896, 0.13381412625312805, -0.044799380004405975, -0.1490601748228073, -0.2419218271970749, 0.044504597783088684, 0.06296808272600174, 0.04263783618807793, -0.5669254064559937, -0.15143992006778717, -0.04611416906118393, -0.0566454753279686, -0.018709050491452217, 0.03983839973807335, 0.09809818118810654, 0.021292708814144135, -0.10761803388595581, -0.11274769902229309, 0.0667824074625969, -0.04661770164966583, 0.011595598421990871, -0.04690929502248764, -0.09358257800340652, -0.08525723218917847, 0.08648864924907684, 0.028593391180038452, 0.056789569556713104, 0.12911689281463623, -0.06676972657442093, -0.056999169290065765, 0.0069180079735815525, 0.023230649530887604, -0.09851578623056412, 0.02033635601401329, 0.05327708646655083, 0.06034929305315018, -0.10356142371892929, -0.05322108790278435, -0.019379736855626106, 0.16355976462364197, 0.07472225278615952, 0.10392746329307556, 0.03040960803627968, -0.05780176818370819, 0.1648501753807068, -0.059039607644081116, 0.11233814060688019, 0.022397171705961227, 0.08334950357675552, 0.040867775678634644, -0.04015302658081055, -0.00800721812993288, 0.034747473895549774, 0.00016986300761345774, 0.057869598269462585, -0.003539531258866191, 0.13367822766304016, -0.1720064878463745, 0.03359995037317276, -0.05262402445077896, 0.029639650136232376, 0.048200834542512894, 0.048895541578531265, 0.0893070250749588, 0.04579940438270569, 0.0029576874803751707, 0.026586702093482018, -0.028909405693411827, 0.006253640167415142, 0.009750141762197018, -0.06330274790525436, 0.102147176861763, -0.020577644929289818, 0.12180139124393463, 0.011116583831608295, 0.1530948281288147, 0.010524463839828968, 5.611508458969183e-05, -0.014086657203733921, 0.17331045866012573, 0.1658986359834671, -0.08009421080350876, 0.03672664985060692, 0.041308533400297165, -0.05154189094901085, 0.017095226794481277, -0.060832131654024124, -0.031514205038547516, -0.04980437085032463, 0.025367897003889084, 0.011108184233307838, -0.00734403682872653, -0.06816817075014114, 0.030551176518201828, 5.706352385459468e-05, 0.06403680890798569, -0.060511086136102676, 0.008724645711481571, -0.09678870439529419, -0.030654335394501686, 0.016956616193056107, 0.06354204565286636, -0.08529376238584518, -0.02503393404185772, 0.007719603832811117, -0.034489866346120834, 0.05563456937670708, 0.0017745429649949074, -0.17402470111846924, 0.1452026218175888, 0.11228993535041809, 0.15108415484428406, -0.006347713526338339, 0.08578555285930634, 0.01005680114030838, -0.01715749129652977, 0.0649462565779686, -0.0658184066414833, -0.10942154377698898, -0.003994171041995287, 0.10485295206308365, -0.012916333973407745, -0.030490588396787643, -0.009087668731808662, -0.03516574576497078, -0.08561199903488159, 0.010721039958298206, 0.042414356023073196, 0.08544694632291794, 0.06659968197345734, 0.0819169357419014, 0.002115802373737097, -0.020058749243617058, 0.07424131035804749, 0.03132893145084381, 0.15584030747413635, 0.05997832864522934, -0.02127986215054989, 0.05006174370646477, -0.04657066985964775, -0.1437615603208542, -0.0608309805393219, 0.034011658281087875, 0.23254872858524323, -0.07427003979682922, -0.005845637526363134, 0.022578084841370583, -0.09079424291849136, 0.11335037648677826, 0.026193615049123764, -0.12343792617321014, 0.024071821942925453, 0.022708836942911148, 0.04011894762516022, -0.010134866461157799, -0.07245729863643646, -0.006711332593113184, 0.02201974391937256, -0.032339610159397125, 0.05125143378973007, -0.10367044061422348, -0.013066036626696587, -0.022923145443201065, 0.12305432558059692, 0.09422813355922699, 0.11231575906276703, -0.02669554017484188, -0.037691567093133926, 0.07101169228553772, -0.008307204581797123, -0.00918682012706995, 0.052449218928813934, 0.06329710781574249, 0.04633148014545441, 0.027386069297790527, 0.21394719183444977, 0.006775398273020983, 0.036678776144981384, 0.026905331760644913, -0.00025612677563913167, -0.11289267987012863, -0.022437727078795433, 0.013719964772462845, 0.20716553926467896, 0.09969720989465714, 0.19501617550849915, -0.014027702622115612, 0.1465352326631546, 0.004284536466002464, 0.1175013929605484, 0.0968792736530304, 0.3793984353542328, -0.012523587793111801, 0.12328805774450302, 0.011151687242090702, 0.13641728460788727, 0.11347832530736923, 0.142065167427063, 0.056184206157922745, 0.04632581025362015, 0.05797532945871353, -0.14998739957809448, -0.013976974412798882, 0.054862264543771744, -0.10301243513822556, 0.2505829930305481, 0.024501802399754524, 0.003292177338153124, 0.17842385172843933, 0.08221384137868881, 0.030805842950940132, 0.04354440048336983, -1.0900542736053467, 0.09902030229568481, 0.011077787727117538, -0.0840909481048584, 0.015872733667492867, 0.006324601825326681, 0.028688684105873108, -0.029116617515683174, 0.02575828693807125, 0.009826972149312496, -0.05385098606348038, 0.01257053017616272, -0.22352339327335358, -0.405290812253952, -0.012445325031876564, 0.03836888447403908, -0.0785771906375885, -0.05989474058151245, -0.02775491215288639, -0.09673302620649338, 0.055599894374608994, -0.007913772948086262, -0.021259475499391556, -0.02630753256380558, 0.13447542488574982, -0.12114068120718002, 0.11089583486318588, 0.16978396475315094, 0.20777037739753723, 0.17912517488002777, -0.17805610597133636, 0.05232217535376549, 0.024846967309713364, 0.035056956112384796, -0.041281670331954956, 0.04005526006221771, 0.7691818475723267, -0.05500303953886032, 0.051399074494838715, 0.007127825170755386, 0.0704725980758667, -0.045083533972501755, 0.021530551835894585, -0.03148592635989189, -0.26367226243019104, 0.07321228832006454, -0.014737538062036037, 0.05048130080103874, 0.13500705361366272, -0.007878207601606846, 0.179114431142807, 0.0129488380625844, 0.03680338338017464, 0.011440818198025227, 0.040302496403455734, -0.23544150590896606, -0.09383249282836914, 0.21072183549404144, 0.10803584009408951, 0.023800207301974297, -0.03997555747628212, 0.02396983653306961, 0.008008157834410667, -0.07204695045948029, 0.015252764336764812, 0.005043331533670425, -0.08045539259910583, 0.07201015204191208, -0.029771655797958374, 0.046594709157943726, 0.2343016266822815, -0.008127723820507526, -0.04041692242026329, -0.002663128776475787, 0.1223115622997284, 0.04522586613893509, 0.01121458224952221, -0.05370304360985756, 0.1408235728740692, -0.05407676473259926, -0.14076659083366394, -0.021623775362968445, 0.04130958393216133, 0.14833375811576843, -0.07000287622213364, -0.06456629186868668, -0.12764903903007507, 0.013093041256070137, 0.0775681585073471, 0.005243162624537945, 0.04401931166648865, 0.005707087926566601, 0.07946490496397018, 0.10764678567647934, 0.03817065805196762, 0.08582375198602676, -0.20708990097045898, -0.09836458414793015, 0.02696392312645912, 0.17822089791297913, -0.011355668306350708, 0.0059623196721076965, -0.18545909225940704, -0.136400043964386, -0.06401059776544571, 0.04860347881913185, -0.040235117077827454, 0.04631182178854942, -0.038760192692279816, 0.033744994550943375, -0.05376126617193222, 0.1633552759885788, -0.013595283962786198, 0.03230348229408264, -0.02915390580892563, -0.1689893901348114, -0.10436346381902695], "embeddings.LayerNorm.weight": [0.5989283323287964, 0.583594799041748, 0.6335410475730896, 0.6244606375694275, 0.5709890127182007, 0.6163643598556519, 0.6363205909729004, 0.6152663826942444, 0.6406002044677734, 0.5802512168884277, 0.6294736862182617, 0.6167336702346802, 0.6151471138000488, 0.5813236236572266, 0.5983825325965881, 0.6189806461334229, 0.607470691204071, 0.5967782139778137, 0.616801381111145, 0.6058211326599121, 0.5801717638969421, 0.6313323974609375, 0.5894054174423218, 0.6015422940254211, 0.6418947577476501, 0.5873635411262512, 0.634997546672821, 0.6086517572402954, 0.6572464108467102, 0.5895125269889832, 0.5977482199668884, 0.6299948692321777, 0.616859495639801, 0.5874583125114441, 0.6363848447799683, 0.5879603624343872, 0.6144124865531921, 0.5978994369506836, 0.6138945817947388, 0.634028434753418, 0.6193003058433533, 0.5990501046180725, 0.6172512769699097, 0.6200366616249084, 0.6134974956512451, 0.6142122149467468, 0.6113495826721191, 0.6312237977981567, 0.6247583031654358, 0.5999141335487366, 0.603358805179596, 0.6246055960655212, 0.5975446701049805, 0.6463807821273804, 0.6211802363395691, 0.6283865571022034, 0.5953921675682068, 0.6365698575973511, 0.5967367887496948, 0.6054134964942932, 0.6363788843154907, 0.6035652756690979, 0.6519616842269897, 0.5446895956993103, 0.600120484828949, 0.6273356080055237, 0.6083567142486572, 0.6466444730758667, 0.6211093068122864, 0.6222993731498718, 0.6404299736022949, 0.5818764567375183, 0.6272636651992798, 0.6066288948059082, 0.5967051982879639, 0.6441565752029419, 0.6086466908454895, 0.6235241293907166, 0.6129357218742371, 0.66856449842453, 0.6349061131477356, 0.6387197971343994, 0.6126232147216797, 0.6119614839553833, 0.6129759550094604, 0.6032596826553345, 0.6214051246643066, 0.617983341217041, 0.6210099458694458, 0.5993365049362183, 0.6149908900260925, 0.6132802367210388, 0.6270818114280701, 0.6191732287406921, 0.6491950750350952, 0.5832863450050354, 0.5904165506362915, 0.609930157661438, 0.6565786004066467, 0.3684098422527313, 0.5942676663398743, 0.6025098562240601, 0.6127814650535583, 0.6018697619438171, 0.635947048664093, 0.6176026463508606, 0.6019913554191589, 0.6211380958557129, 0.631005585193634, 0.5977840423583984, 0.6135506629943848, 0.5941175222396851, 0.638809084892273, 0.6256203055381775, 0.6276212334632874, 0.6441789865493774, 0.6464623808860779, 0.6473541855812073, 0.6156337857246399, 0.6650498509407043, 0.6194350123405457, 0.6216537952423096, 0.6332182884216309, 0.6111331582069397, 0.6088188886642456, 0.6497894525527954, 0.6159564852714539, 0.6098585724830627, 0.5932163000106812, 0.6343119144439697, 0.6096500754356384, 0.6720218062400818, 0.6292990446090698, 0.6060197353363037, 0.5821352005004883, 0.6117990016937256, 0.6167939901351929, 0.6294385194778442, 0.619463324546814, 0.6325743794441223, 0.62143874168396, 0.6317269206047058, 0.6595046520233154, 0.6216109395027161, 0.6222772598266602, 0.6137204170227051, 0.637151837348938, 0.5919508337974548, 0.6179790496826172, 0.6592313647270203, 0.6094200015068054, 0.6245132088661194, 0.6084173321723938, 0.6495641469955444, 0.6273016929626465, 0.5870075225830078, 0.6372218132019043, 0.917343020439148, 0.6052697896957397, 0.6104738712310791, 0.6151517629623413, 0.6312228441238403, 0.6094428300857544, 0.642602801322937, 0.6025822162628174, 0.6222713589668274, 0.6158226728439331, 0.6112176179885864, 0.6199208498001099, 0.6364665031433105, 0.6392439007759094, 0.6207071542739868, 0.6095553636550903, 0.6554232835769653, 0.6365216374397278, 0.6259080767631531, 0.6498702764511108, 0.6174138188362122, 0.5770198106765747, 0.6251168847084045, 0.6267828941345215, 0.5989252924919128, 0.6203011870384216, 0.6215358972549438, 0.615041196346283, 0.6248854994773865, 0.6171815395355225, 0.606307864189148, 0.598606288433075, 0.6778144240379333, 0.6002556085586548, 0.643871545791626, 0.6439214944839478, 0.6092240214347839, 0.6156848669052124, 0.6135449409484863, 0.6281774640083313, 0.6217125654220581, 0.6204432845115662, 0.6060736775398254, 0.6407880783081055, 0.6279752850532532, 0.604407787322998, 0.5969507098197937, 0.6568666100502014, 0.6143478751182556, 0.6081190705299377, 0.6217438578605652, 0.6163557767868042, 0.6196649670600891, 0.6094445586204529, 0.6357138156890869, 0.6334421038627625, 0.6250033974647522, 0.6050410270690918, 0.6128629446029663, 0.62345951795578, 0.6043255925178528, 0.6043853163719177, 0.5954803824424744, 0.6068140268325806, 0.6562730669975281, 0.6558802723884583, 0.6791329979896545, 0.6386275887489319, 0.6215136051177979, 0.6322407722473145, 0.6475172638893127, 0.5884841680526733, 0.609049379825592, 0.5964279770851135, 0.6186313629150391, 0.6090067028999329, 0.6524708867073059, 0.637391209602356, 0.5878670811653137, 0.6259585022926331, 0.5942220687866211, 0.5613840818405151, 0.6599357724189758, 0.6100953221321106, 0.618775486946106, 0.5776386857032776, 0.6105472445487976, 0.5923614501953125, 0.6145086884498596, 0.5199673175811768, 0.6658364534378052, 0.5901213884353638, 0.6567246317863464, 0.6002697348594666, 0.6144087314605713, 0.6593979597091675, 0.6097208857536316, 0.6305533647537231, 0.5894708633422852, 0.6235433220863342, 0.62514728307724, 0.6176904439926147, 0.621845543384552, 0.5984017252922058, 0.6255442500114441, 0.625656008720398, 0.5954864025115967, 0.6184654831886292, 0.6090734004974365, 0.6574452519416809, 0.14528129994869232, 0.6378695964813232, 0.6232457756996155, 0.6317633390426636, 0.6357449293136597, 0.6339287161827087, 0.6023450493812561, 0.6498534679412842, 0.622032105922699, 0.6350041031837463, 0.6419752240180969, 0.601580798625946, 0.6472864747047424, 0.5434315800666809, 0.6256745457649231, 0.6297701597213745, 0.6210287809371948, 0.6313858032226562, 0.6032517552375793, 0.6195285320281982, 0.6133490204811096, 0.6449824571609497, 0.5967251062393188, 0.59928297996521, 0.6407099962234497, 0.640288770198822, 0.6025899648666382, 0.5916649103164673, 0.5831913352012634, 0.6186215281486511, 0.6140732169151306, 0.6157825589179993, 0.6298774480819702, 0.649638295173645, 0.5615400075912476, 0.6228716969490051, 0.3849804997444153, 0.629562258720398, 0.6122448444366455, 0.5999872088432312, 0.608833372592926, 0.6215105056762695, 0.6388906240463257, 0.6298282742500305, 0.5811412334442139, 0.5887511372566223, 0.6156480312347412, 0.5937931537628174, 0.5886833667755127, 0.6400859355926514, 0.6053261160850525, 0.6185280680656433, 0.5972380042076111, 0.6120787858963013, 0.6221359968185425, 0.6277939081192017, 0.6019284129142761, 0.5968400835990906, 0.6352383494377136, 0.6397557854652405, 0.6588007211685181, 0.6018173098564148, 0.6349834203720093, 0.6335049867630005, 0.6218849420547485, 0.6221015453338623, 0.5960760712623596, 0.6210218667984009, 0.621221661567688, 0.6175071597099304, 0.54971843957901, 0.8486542105674744, 0.605671763420105, 0.6221631169319153, 0.6418742537498474, 0.6217082738876343, 0.65177321434021, 0.6338752508163452, 0.6086938977241516, 0.6097051501274109, 0.657349705696106, 0.6316269040107727, 0.6361015439033508, 0.6111205220222473, 0.653023362159729, 0.5795676112174988, 0.5883983969688416, 0.6230648159980774, 0.597599983215332, 0.598293662071228, 0.6125062108039856, 0.6236689686775208, 0.7311984896659851, 0.5983027815818787, 0.6274846196174622, 0.603783130645752, 0.5860565304756165, 0.6101884841918945, 0.6142288446426392, 0.6462281346321106, 0.6011947393417358, 0.645260751247406, 0.5809934735298157, 0.5947842597961426, 0.6393088102340698, 0.6034777164459229, 0.6241480708122253, 0.6066901683807373, 0.6331902742385864, 0.5949906706809998, 0.5769115090370178, 0.5989949703216553, 0.6134778261184692, 0.6248548626899719, 0.6227173209190369, 0.5928501486778259, 0.6554279327392578], "embeddings.position_embeddings.weight": [[-0.08555416762828827, -0.03291567042469978, -0.0170280858874321, 0.10415853559970856, 0.019368130713701248, -0.000353822426404804, 0.028837377205491066, -0.009048297069966793, -0.0034039390739053488, 0.017565004527568817, 0.025079961866140366, 0.038130830973386765, 0.01973716728389263, -0.06765583157539368, -0.026538200676441193, -0.0129657918587327, 0.0659797266125679, 0.06294345110654831, -0.07841997593641281, -0.0016495409654453397, -0.0013822787441313267, 0.04909941181540489, -0.03293168544769287, -0.11927585303783417, -0.06271759420633316, -0.0524289533495903, 0.019913941621780396, -0.10030779987573624, 0.04707171022891998, -0.059438690543174744, -0.01362478919327259, 0.029095793142914772, 0.007676790002733469, 0.028513675555586815, 0.09383798390626907, 0.04264465719461441, -0.052547551691532135, -0.11708717793226242, 0.03988275304436684, -0.11378183960914612, 0.018284233286976814, -0.025160595774650574, -0.008499975316226482, -0.06702587753534317, 0.03763502463698387, 0.005790185648947954, 0.06832139194011688, -0.08588901907205582, -0.07516612112522125, -0.0267645251005888, -0.05751636251807213, -0.058679964393377304, 0.08021240681409836, -0.001485987100750208, 0.08678218722343445, -0.04647361859679222, 0.035437874495983124, 0.041490934789180756, 0.030135605484247208, -0.03670698404312134, 0.011959288269281387, -0.012188225984573364, -0.030082285404205322, 0.018625983968377113, 0.03659188374876976, -0.008647969923913479, 0.043174877762794495, -0.08640445023775101, -0.09469298273324966, -0.11435423791408539, 0.08365947008132935, 0.006960950326174498, 0.029291659593582153, -0.04530877619981766, -0.035836268216371536, -0.030114611610770226, -0.0401613786816597, 0.04710487648844719, -0.07249563932418823, -0.07008875906467438, 0.05243905261158943, 0.2727561295032501, -0.007961870171129704, -0.06334465742111206, 0.03341200202703476, 0.02816152386367321, -0.038696274161338806, 0.10864797979593277, 0.039658352732658386, -0.029749631881713867, 0.008109277114272118, -0.002595402766019106, 0.053479019552469254, 0.0418117381632328, -0.14992541074752808, 0.044369932264089584, -0.11569895595312119, -0.0842614397406578, -0.0005514120566658676, 1.8740946054458618, 0.0003005555481649935, 0.034984588623046875, -0.03605485334992409, -0.041091229766607285, -0.10291484743356705, 0.10095294564962387, -0.04748860001564026, 0.06637334823608398, -0.022436926141381264, -0.05630328133702278, 0.057697173207998276, 0.039745379239320755, 0.20834948122501373, -0.08267947286367416, -0.11297594755887985, -0.013448060490190983, -0.0692911222577095, -0.002234962536022067, 0.08840745687484741, -0.030231280252337456, -0.10013845562934875, 0.048030536621809006, -0.08894583582878113, 0.02653190866112709, 0.07002287358045578, -0.10596837848424911, -0.06850855052471161, -0.05066557973623276, -0.006364370230585337, -0.006480415817350149, -0.021863041445612907, 0.15447764098644257, 0.08395003527402878, -0.05095447599887848, -0.005024916026741266, -0.022208476439118385, -0.013016913086175919, -0.0655660480260849, 0.07280691713094711, 0.05885658413171768, -0.10231035947799683, -0.13540972769260406, -0.09273990988731384, -0.07380178570747375, 0.0071161650121212006, 0.016276616603136063, -0.05398515611886978, 0.08716104179620743, -0.0625172108411789, 0.03538186103105545, -0.04997381567955017, -0.07460549473762512, -0.028512170538306236, 0.01643059030175209, 0.014824249781668186, 0.0569099485874176, -0.035633936524391174, -0.17840713262557983, -0.015950247645378113, -0.06404855847358704, 0.07117787003517151, 0.02481899969279766, -0.05140690505504608, -0.06841330230236053, 0.046091098338365555, 0.019497690722346306, -0.04086751863360405, -0.059900108724832535, 0.04142940416932106, -0.044400304555892944, 0.0929141417145729, 0.10380981117486954, -0.06413160264492035, -0.07046736031770706, 0.05630014091730118, -0.07287740707397461, -0.0056559983640909195, -0.058935586363077164, -0.05483231693506241, 0.020375443622469902, -0.04767780378460884, -0.05840257555246353, -0.038851652294397354, 0.034648001194000244, -0.11832277476787567, -0.00721741234883666, 0.06859635561704636, -0.005987095180898905, 0.0559527650475502, -0.09352997690439224, -0.07666122168302536, 0.06132238358259201, 0.07457012683153152, 0.060680754482746124, -0.05888759344816208, 0.01974683627486229, 0.01862490363419056, 0.014241116121411324, -0.07765901833772659, 0.0646696537733078, -0.04535270482301712, 0.0097903897985816, 0.05733223259449005, 0.0240414347499609, -0.060902852565050125, 0.1061764732003212, -0.03312484920024872, 0.024328522384166718, 0.04232953116297722, 0.04821236804127693, -0.04022035002708435, -0.033149365335702896, -0.042881473898887634, -0.08422063291072845, -0.01938193291425705, 0.009435820393264294, -0.06560678035020828, -0.01637089066207409, -0.006972567643970251, 0.02320440299808979, -0.07569969445466995, 0.006512371823191643, -0.00026063970290124416, -0.12304424494504929, -0.07811255007982254, 0.022889558225870132, -0.10392103344202042, 0.011002094484865665, 0.012869950383901596, -0.022336436435580254, -0.057261791080236435, -0.06832926720380783, 0.023675141856074333, 0.019409630447626114, -0.018129505217075348, -0.01198137179017067, -0.005402643233537674, 0.04116782173514366, 0.23424670100212097, -0.10472120344638824, -0.0433187372982502, -0.04379183053970337, -0.025716323405504227, -0.051810380071401596, 0.0982876643538475, 0.16143202781677246, 0.3204820454120636, 0.038420435041189194, -0.03742879256606102, 0.10284309089183807, -0.030665412545204163, -0.029354611411690712, -0.0783521831035614, -0.10865859687328339, 0.024991469457745552, -0.06199721246957779, -0.1404416412115097, -0.02467927150428295, -0.06107144057750702, 0.0622938834130764, 0.04757217690348625, -0.006797210779041052, 0.031590066850185394, -0.04424398019909859, -0.053473133593797684, -0.022473962977528572, -0.06243644654750824, 0.5312590599060059, -0.034783802926540375, -0.013656700029969215, 0.001003750367090106, 0.02313646301627159, -0.06652075797319412, 0.05324213206768036, -0.05404447764158249, -0.1684417426586151, -0.0013105261605232954, 0.09515279531478882, 0.033799752593040466, 0.128292515873909, -0.15496546030044556, -0.08553537726402283, -0.06422857940196991, 0.0633232444524765, -0.046787455677986145, 0.03989894688129425, 0.03692170977592468, -0.012936166487634182, -0.0437738373875618, 0.047975294291973114, 0.05168071389198303, -0.021970471367239952, -0.061489541083574295, 0.007449318654835224, 0.037795864045619965, -0.021179981529712677, 0.09228893369436264, 0.11368762701749802, 0.009041144512593746, -0.031028546392917633, 0.07675307989120483, 0.1672259122133255, 0.005688929930329323, -0.1131683811545372, -0.034052520990371704, -0.06572612375020981, -0.03584620729088783, -0.03283661976456642, -0.0442255474627018, 0.011291662231087685, 0.04473237320780754, -0.0008423722465522587, -0.04416437819600105, 0.001148673240095377, 0.08291986584663391, 0.08477333933115005, -0.011264029890298843, 0.11263301223516464, -0.07809977233409882, -0.008448258973658085, 0.012100470252335072, -0.010376240126788616, 0.08243631571531296, 0.04632902517914772, 0.008123979903757572, -0.04889296367764473, 0.1397227644920349, -0.12397848814725876, -0.013731560669839382, 0.026783183217048645, -0.0075708916410803795, -0.06655573099851608, 0.07364923506975174, 0.009039575234055519, 0.09451664984226227, -0.04616398364305496, -0.015704799443483353, 0.009857598692178726, 0.11597093194723129, 0.009231644682586193, 0.005714199971407652, -0.09091370552778244, -0.10023336112499237, 0.015600639395415783, 0.025567851960659027, -0.018614577129483223, 0.05344248190522194, -0.007203596644103527, 0.008737487718462944, -0.18432027101516724, -0.035918835550546646, 0.0394236221909523, 0.07147862017154694, 0.07235465198755264, 0.06750942766666412, 0.015315619297325611, -0.06922425329685211, 0.07948604226112366, 0.1027706116437912, -0.20261888206005096, 0.020161639899015427, -0.07534065842628479, -0.009052540175616741, 0.13039490580558777, 0.03878851234912872, -0.042004890739917755, -0.038949642330408096, 0.011169024743139744, 0.10600167512893677, 0.0699709951877594, 0.0015615577576681972, 0.08503145724534988, -0.08541405200958252, 0.05122165009379387, 0.05058221518993378, 0.04238590598106384, 0.001335750101134181, 0.062260255217552185, -0.008470549248158932, 0.04752008616924286, -0.019345808774232864, 0.0873618945479393, 0.0965818539261818, 0.0267307311296463], [-0.03272120654582977, 0.0022719488479197025, 0.02110414206981659, 0.01868770457804203, -0.008514688350260258, -0.00832444243133068, 0.04747189208865166, -0.002576956758275628, 0.008356956765055656, 0.010901900008320808, 0.021448591724038124, 0.03122061863541603, -0.01659042201936245, -0.041600532829761505, -0.015212858095765114, 0.005087468307465315, -0.017212051898241043, 0.0026199882850050926, -0.003641151823103428, 0.02102242223918438, -0.08263306319713593, 0.00994157511740923, -0.009498285129666328, -0.00509917875751853, 0.01343171950429678, -0.01691208779811859, -0.03391572833061218, 0.002446504542604089, 0.03604055196046829, -0.003393317572772503, 0.03168690204620361, 0.015722006559371948, 0.014325577765703201, -0.014769286848604679, 0.0350368432700634, 0.014153730124235153, -0.0007396545261144638, 0.032996054738759995, -0.04355911538004875, -0.013594397343695164, 0.0004213671782054007, -0.016430482268333435, -0.017014430835843086, 0.013826618902385235, -0.012575939297676086, -0.016324525699019432, -0.015736257657408714, 0.0017702225595712662, -0.023439187556505203, -0.005827388726174831, -0.0015434363158419728, 0.008966252207756042, 0.051658593118190765, 0.006113261915743351, -0.006479024421423674, 0.00471397303044796, 0.005292693618685007, 0.0023969223257154226, 0.04320460185408592, 0.031394556164741516, 0.02006307616829872, -0.023506568744778633, 9.809823677642271e-05, 0.0018634782172739506, 0.03857731446623802, 0.021697793155908585, 0.005202317610383034, 0.03546220809221268, -0.009515349753201008, -0.02548113465309143, -0.003791375085711479, 0.008165030740201473, 0.03208469599485397, 0.0012126013170927763, 0.00902031920850277, -0.002987998304888606, -0.029895959421992302, -0.010909943841397762, 0.04328988492488861, -0.04480551928281784, -0.024879561737179756, 0.012160701677203178, -0.009209098294377327, -0.016750652343034744, -0.014395476318895817, 0.00230635073967278, 0.006183055229485035, 0.054431308060884476, 0.004802392330020666, 0.011183050461113453, 0.0106425816193223, -0.01939718797802925, -0.005421677604317665, 0.03555232658982277, -0.1076492965221405, 0.018484462052583694, 0.00855096336454153, -0.02004977874457836, -0.019340455532073975, 0.04459060728549957, -0.021996542811393738, 0.003076552879065275, -0.013408421538770199, -0.04309336468577385, -0.0174920205026865, -0.019963884726166725, -0.023034635931253433, -0.013140622526407242, 0.008135227486491203, -0.019587358459830284, 0.002692985348403454, 0.03119770437479019, 0.02894417941570282, 0.019056405872106552, 0.018096353858709335, -0.003046242753043771, 0.009954647161066532, -0.008474666625261307, -0.01061984896659851, -0.010145936161279678, -0.04232310131192207, -0.03647157549858093, 0.0005787945701740682, 0.014260982163250446, 0.032546043395996094, -0.03308088704943657, 0.0222353246062994, 0.017330419272184372, -0.010646228678524494, 0.010956830345094204, -0.0005003222613595426, 0.005828473251312971, -0.007673990447074175, -0.007181991823017597, 0.013143652118742466, 0.010069331154227257, 0.002819039160385728, 0.0043705664575099945, -0.014110897667706013, 0.027665676549077034, 0.020145485177636147, -0.007744016591459513, 0.012990339659154415, 0.04149002209305763, -0.03515518084168434, 0.05624919757246971, -0.005225757136940956, -0.005757034756243229, 0.011729736812412739, 0.01763739436864853, -0.01631000079214573, 0.02727452665567398, -0.006045142654329538, -0.010792706161737442, -0.03179917484521866, -0.0389888770878315, 0.0008449694723822176, 0.02578847110271454, 0.020705798640847206, 0.011564068496227264, 0.00013175969070289284, 0.027791500091552734, -0.006063889246433973, 0.020181182771921158, -0.016721602529287338, -0.03357146680355072, -0.0209350548684597, 0.02722403034567833, 0.0034465412609279156, 0.00473808404058218, 0.017618874087929726, 0.028172248974442482, -0.029169723391532898, 0.03399449214339256, 0.017814461141824722, -0.01849362626671791, 0.010654102079570293, -0.02096179686486721, 0.03012329712510109, -0.009329795837402344, -0.017516132444143295, -0.017010990530252457, 0.0630035251379013, -0.006292171776294708, 0.0042055267840623856, -0.02880670130252838, 0.05028349906206131, -0.007911305874586105, -0.025034256279468536, 0.03868837282061577, -0.021848369389772415, 0.009554428979754448, 0.01456258725374937, -0.024049172177910805, 0.016728458926081657, 0.024401310831308365, -0.009737775661051273, 0.014106140471994877, -0.02163160964846611, 0.02751089259982109, -0.007369295693933964, -0.009109284728765488, -0.0022472795099020004, -0.012590412981808186, -0.023275889456272125, 0.007407003547996283, -0.02358691580593586, -0.0002746882673818618, -0.013053735718131065, -0.005581998731940985, -0.028902413323521614, 0.00896927248686552, 0.0063900211825966835, 0.01020364835858345, -0.037916578352451324, -0.009005478583276272, -0.0056112296879291534, 0.004626321606338024, -0.027492191642522812, -0.03776729851961136, 0.013684540055692196, 0.00289144366979599, 0.009716114029288292, -0.05248373746871948, -0.00588793633505702, 0.002990961540490389, -0.019327690824866295, 0.030791863799095154, 0.011974618770182133, -0.02435976266860962, -0.03796103969216347, 0.025756821036338806, -0.006130632944405079, 0.04134729877114296, 0.02014155685901642, 0.01797417178750038, 0.018916307017207146, -0.011546199209988117, 0.04254082217812538, 0.02442597970366478, -0.009174076840281487, -0.024097882211208344, -0.02275669574737549, 0.026042072102427483, -0.01574857532978058, 0.013945532031357288, 0.050833653658628464, -0.03193237632513046, 0.02452145889401436, 0.0053076776675879955, 0.01737598143517971, 0.01539936475455761, -0.04905186593532562, -0.030822673812508583, 0.0025954721495509148, -0.016135890036821365, -0.02248554304242134, 0.029243629425764084, 0.0058194175362586975, 0.06606186181306839, -0.006821298506110907, 0.020473206415772438, -0.0007551315939053893, 0.025757677853107452, 0.0063558886758983135, 0.02156287431716919, 0.00529164494946599, 0.1738559603691101, 0.0006414520321413875, 0.013782551512122154, 0.008631529286503792, 0.003106533084064722, -0.005162212066352367, -0.006615333259105682, -0.028390025720000267, -0.016567939892411232, -0.014930740930140018, 0.0009766957955434918, -0.0072353556752204895, 0.01960834674537182, -0.006938748527318239, 0.019811062142252922, 0.015143387019634247, -0.027439115568995476, -0.017418954521417618, -0.02507452853024006, -0.0056402841582894325, -0.019636739045381546, -0.008372245356440544, 0.00671666394919157, -0.0013137654168531299, -0.01772242970764637, 0.036523569375276566, -0.02031642198562622, -0.014972207136452198, -0.017976650968194008, -0.04339250549674034, -0.01165603194385767, 0.001290193642489612, -0.018660152330994606, 0.001997564220800996, 0.04864849895238876, -0.0135142607614398, -0.023366110399365425, -0.0006554321735166013, 0.022362858057022095, -0.04959561675786972, -0.02331472933292389, 0.022767066955566406, 0.02598142996430397, 0.009296500124037266, 0.01650639995932579, -0.000215208187000826, 8.74132092576474e-05, 0.005690313410013914, -0.013796557672321796, 0.015831084921956062, 0.0063077653758227825, -0.0025224213022738695, -0.025399621576070786, 0.015118157491087914, 0.013231843709945679, 0.015701085329055786, -0.007261984515935183, -0.03188550844788551, -0.0008229328668676317, 0.030542535707354546, -5.714626968256198e-05, 0.009565088897943497, -0.02190467156469822, 0.027625517919659615, -0.013786524534225464, 0.024670425802469254, -0.008218578062951565, -0.022929569706320763, -0.017260195687413216, 0.011233328841626644, -0.027291957288980484, 0.0013512704754248261, -0.01827758178114891, 0.013245089910924435, -0.03712930530309677, 0.0016268319450318813, 0.0010582254035398364, 0.00719461077824235, -0.020749110728502274, -0.005997215397655964, 0.044318389147520065, 0.016647251322865486, -0.03648294135928154, -0.005379409063607454, 0.03161599859595299, -0.03156423568725586, -0.02270624414086342, -0.011142769828438759, 0.022652067244052887, -0.006331277079880238, -0.008995801210403442, 0.03464359790086746, -0.01822960004210472, 0.02895495295524597, 0.000896997400559485, -0.0023592482320964336, 0.028232356533408165, 0.0008881882531568408, -0.011553199961781502, -0.016662146896123886, 0.055785149335861206, -0.002904076362028718, 0.058086421340703964, 0.05717850849032402, 0.002448896411806345, -0.05530683323740959, 0.0029946763534098864, -0.003297897521406412, -0.02878272347152233, 0.011477460153400898, 0.022370563820004463, 0.005894526839256287, 0.02030545100569725, 0.0427568294107914, 0.028158867731690407, 0.04547747224569321, -0.009841778315603733], [-0.01342716347426176, -0.009503352455794811, 0.0317043662071228, -0.014500312507152557, 0.00041077221976593137, -0.006075519137084484, 0.03700566291809082, 0.01794370636343956, 0.005340171977877617, 0.0056791952811181545, 0.025527196004986763, 0.026361234486103058, -0.01205559354275465, -0.04200198873877525, -0.032557178288698196, -0.006579934153705835, -0.008411635644733906, -0.017411619424819946, -0.010189919732511044, 0.02130354754626751, -0.0661076158285141, 0.016610758379101753, 0.005755078513175249, 0.0030337204225361347, 0.017792044207453728, 0.0006262918468564749, -0.007169509772211313, -0.019189896062016487, 0.032280754297971725, -0.019511984661221504, 0.03213510289788246, 0.014062144793570042, 0.005295976065099239, -0.01540672779083252, 0.04169805720448494, 0.01961996778845787, -0.0036781958770006895, 0.007372535765171051, -0.03047398291528225, -0.004712637513875961, -0.0026065062265843153, 0.0010606300784274936, -0.019077051430940628, -0.008954325690865517, -0.015466795302927494, -0.027901170775294304, -0.02337603271007538, -0.006100100465118885, -0.02405872941017151, -0.007455097045749426, -0.004398701712489128, 0.022641994059085846, 0.00944175012409687, 0.00735426414757967, -0.005853514187037945, 0.012309037148952484, 0.014299721457064152, 0.008161545731127262, 0.02848522923886776, 0.020384667441248894, 0.0034842120949178934, -0.013150447979569435, 0.007580924313515425, 0.005877166986465454, 0.05041315034031868, -0.006500912830233574, 0.014639600180089474, 0.012129100039601326, -0.012665931135416031, -0.011915926821529865, 0.009383118711411953, 0.0131622813642025, 0.048227597028017044, 0.00223092851229012, 0.000658116303384304, -0.008494054898619652, -0.005258012562990189, 0.01946980506181717, 0.020119618624448776, -0.0263911634683609, -0.027771053835749626, 0.0010912750149145722, -0.012366564013063908, -0.006968680769205093, 0.023857660591602325, 0.015034342184662819, 0.018510568886995316, 0.008678380399942398, 0.01238201279193163, 0.0030744599644094706, 0.009930138476192951, -0.002860419452190399, -0.005484216846525669, 0.01853330433368683, -0.08987900614738464, 0.015601648017764091, 0.025719935074448586, -0.014268641360104084, -0.01489550806581974, 0.043951041996479034, -0.015794243663549423, -0.00033834591158665717, -0.01988396793603897, -0.04559343308210373, -0.02611854113638401, -0.008135160431265831, 0.0038674003444612026, -0.0013643905986100435, -0.002630809089168906, -0.013294698670506477, 0.010131803341209888, 0.016285138204693794, 0.02661554142832756, 0.004858143161982298, -0.008696433156728745, -0.008992135524749756, -0.00228421064093709, -0.018339915201067924, -0.017797278240323067, -0.026329049840569496, -0.054072216153144836, -0.030874693766236305, -0.004251726903021336, 0.007064927835017443, 0.025038210675120354, -0.0166018046438694, 0.00046502897748723626, 0.004667272325605154, -0.01922946237027645, 0.02213471569120884, -0.01513043511658907, 0.01000735629349947, 0.02185775712132454, -0.01235082559287548, 0.006859437096863985, 0.021259302273392677, 0.01428122166544199, -0.014124928042292595, 0.002212131628766656, 0.020449822768568993, -0.0008549799094907939, 0.002583966590464115, 0.017189383506774902, 0.022960931062698364, -0.030224289745092392, 0.0622544139623642, 0.008412831462919712, -0.011745612137019634, 0.012069654650986195, 0.01638953574001789, 0.003307826817035675, -0.002473339205607772, -0.00159564265049994, 0.024482008069753647, -0.024524584412574768, -0.02927854284644127, 0.012453270144760609, 0.02941565215587616, 0.02430187724530697, 0.03043520823121071, 0.023609856143593788, 0.026818612590432167, -0.00568339042365551, 0.032954975962638855, -0.006193320266902447, -0.020536018535494804, -0.014002161100506783, 0.009484535083174706, -0.010580033995211124, -0.034354809671640396, -0.0034997761249542236, 0.012119442224502563, -0.006792104337364435, 0.0226824339479208, 0.005343558266758919, -0.04283987358212471, 0.005800371058285236, -0.012421298772096634, 0.027156934142112732, 0.019953738898038864, -0.017091156914830208, -0.013637633062899113, 0.032681021839380264, 0.0017665234627202153, -0.02973826229572296, -0.0316174142062664, 0.016805727034807205, 0.006147512700408697, -0.006147113163024187, 0.0233979020267725, -0.006677402649074793, -0.0025944735389202833, -0.007375478744506836, 0.0017116050003096461, -0.004691877402365208, 0.029253067448735237, 0.005657353904098272, 0.02611522749066353, -0.021475227549672127, 0.011601444333791733, 0.003497230587527156, -0.023590387776494026, -0.01121556106954813, -0.004458519164472818, -0.0271269753575325, -0.008777237497270107, -0.025039471685886383, 0.003510101931169629, -0.012576092965900898, -0.01484801433980465, -0.01139525044709444, 0.031228147447109222, 0.0019479355541989207, 0.00928057823330164, -0.04427886754274368, 0.0009555810247547925, -0.01129921618849039, -0.01420248206704855, -0.029168954119086266, -0.019310787320137024, 0.026258407160639763, -0.007564770057797432, -0.01014007069170475, -0.04607761278748512, -0.0187575351446867, -0.003073792438954115, -0.011167846620082855, 0.0087159788236022, 0.009742148220539093, 0.011255523189902306, -0.022696932777762413, 0.02268385887145996, -0.014344785362482071, 0.043559957295656204, 0.02465178817510605, 0.020170459523797035, 0.03464443236589432, -0.03185722604393959, 0.05654474347829819, 0.009227319620549679, -0.005425047595053911, 0.0008799431961961091, -0.0032702202443033457, 0.039924561977386475, -0.01852203533053398, 0.02334347553551197, 0.03908244147896767, -0.03351355344057083, -0.0010504369856789708, -0.003955750726163387, 0.012016749940812588, 0.009593093767762184, -0.050135426223278046, -0.02532660961151123, 0.005898742005228996, -0.03450379893183708, -0.007689999416470528, 0.020263422280550003, 0.006346775684505701, 0.029033677652478218, -0.0036923822481185198, 0.027492212131619453, -0.008712784387171268, 0.015419753268361092, -0.03148598223924637, 0.023526346310973167, -0.016236720606684685, 0.1836225837469101, -0.004282900132238865, 0.0011187649797648191, 0.012586296536028385, 0.009068897925317287, -0.012896432541310787, 0.012007342651486397, -0.02992912009358406, -0.011372092179954052, -0.013620156794786453, 0.013245846144855022, 0.010380289517343044, 0.03552643954753876, 0.010489356704056263, -0.01246239710599184, 0.01174947526305914, -0.0016144466353580356, -0.009012563154101372, 0.002865459769964218, 0.0013987359125167131, -0.03726300597190857, 0.004339091945439577, 0.006027200724929571, 0.00889325886964798, -0.025062713772058487, 0.03350114822387695, -0.0319988876581192, -0.047559235244989395, -0.026777001097798347, -0.023805687204003334, -0.014907099306583405, -0.014428806491196156, -0.004691487643867731, 0.009333626367151737, 0.039111457765102386, 0.013943920843303204, -0.031249625608325005, -0.002617783145979047, 0.015832461416721344, -0.008632631972432137, 0.005207682494074106, 0.015815945342183113, -0.004384462721645832, 0.010582424700260162, 0.008844389580190182, -0.006867273710668087, -0.016595156863331795, 0.019073333591222763, -0.02602526545524597, -0.00571016687899828, 0.006876770872622728, 0.0052015469409525394, -0.03481326997280121, 0.02197563461959362, -0.006061912514269352, 0.021031618118286133, -0.016244633123278618, -0.031630948185920715, 0.0052714599296450615, 0.025593988597393036, -0.02287101186811924, 0.00785513874143362, -0.012518928386271, 0.018666114658117294, -0.006146903615444899, 0.03575538843870163, 0.008896494284272194, -0.018309326842427254, -0.01686595194041729, -0.011134902015328407, -0.027860186994075775, 0.0028447082731872797, -0.0156089523807168, 0.0214786808937788, -0.03434167802333832, 0.0037095765583217144, -0.0038245406467467546, 0.01433382648974657, -0.0037990612909197807, 0.006884035188704729, 0.03346308320760727, 0.010485284961760044, -0.040790822356939316, -0.004518998321145773, 0.027054915204644203, -0.01931917481124401, -0.02508673444390297, -0.010420597158372402, 0.0010471577988937497, -0.001438134117051959, -0.009307770989835262, 0.007196114398539066, -0.02062082476913929, 0.022021647542715073, -0.005441412329673767, 0.012587917037308216, 0.02249755896627903, -0.009655304253101349, -0.007074921391904354, 0.008716758340597153, 0.033350903540849686, 0.0134841063991189, 0.037411753088235855, 0.0414193719625473, -0.012462720274925232, -0.015246141701936722, 0.003113950602710247, 0.009402429684996605, -0.002980327233672142, 0.00020149997726548463, 0.045771174132823944, -0.0019119783537462354, 0.0065726242028176785, 0.01925661973655224, 0.006333955563604832, 0.04613364115357399, -0.016270732507109642], [-0.023438526317477226, 0.0006601884961128235, 0.02879667654633522, -0.015692370012402534, 0.003341631032526493, 0.009877636097371578, 0.0220164991915226, 0.0021966143976897, 0.011518728919327259, -0.006641405168920755, 0.02898554503917694, 0.025129690766334534, -0.0019113519228994846, -0.019931217655539513, -0.018733574077486992, -0.013214404694736004, -0.009608783759176731, -0.01697385311126709, -0.005169696174561977, 0.02402222901582718, -0.06389830261468887, 0.016853468492627144, 0.0009814804652705789, -0.013149183243513107, 0.023334244266152382, -0.011806020513176918, -0.0006616683676838875, -0.001123846392147243, 0.031187759712338448, -0.02884388342499733, 0.03322877362370491, 0.010354675352573395, 0.0030611329711973667, 0.021382875740528107, 0.022250453010201454, 0.006221141666173935, -0.027119051665067673, 0.004512070212513208, -0.008181803859770298, 0.015185059048235416, 0.0023742234334349632, 0.014109842479228973, 0.0015359659446403384, -0.0355759896337986, -0.021424289792776108, -0.03813117742538452, -0.03286237269639969, -0.02851570025086403, -0.028547191992402077, -0.012232181616127491, -0.010176721028983593, 0.012607773765921593, -0.002223825082182884, 0.0012843969743698835, -0.010496489703655243, 0.021849725395441055, 0.008192991837859154, 0.0013886679662391543, 0.016067631542682648, 0.016179271042346954, -0.007604206912219524, -0.01752084493637085, 0.006135579664260149, 0.0035133115015923977, 0.052513521164655685, 0.013910568319261074, 0.016692237928509712, 0.011209951713681221, -0.007380335126072168, -0.010341737419366837, 0.008756906725466251, 0.038034845143556595, 0.03707939386367798, -0.02933659590780735, -0.011583981104195118, -0.005155886523425579, 0.006849708501249552, 0.014250358566641808, 0.005426591262221336, -0.02310539036989212, -0.02242599055171013, -0.009937797673046589, -0.019207600504159927, -0.01015904825180769, 0.002763072494417429, 0.027624906972050667, 0.01981174387037754, -0.010260511189699173, 0.002871854230761528, 0.021146105602383614, 0.007646131794899702, 0.013980102725327015, -0.010366557165980339, -0.014731801114976406, -0.08220972865819931, 3.6285324313212186e-05, 0.02416902780532837, -0.0070616393350064754, -0.014455977827310562, 0.0420682393014431, -0.024211866781115532, -0.013428570702672005, -0.014615058898925781, -0.04636644572019577, -0.010511713102459908, 0.023409679532051086, 0.0016436063451692462, 0.015222909860312939, -0.013533269055187702, -0.015284191817045212, 0.007458007428795099, 0.0071963900700211525, 0.028275130316615105, -0.010266211815178394, -0.024378009140491486, -0.017211906611919403, -0.002588649746030569, -0.018772058188915253, -0.006749445106834173, -0.02848808839917183, -0.03492920100688934, -0.036031853407621384, -0.022555744275450706, -0.0001270448847208172, -0.006133959628641605, -0.019046682864427567, -0.020157238468527794, -0.004548414144665003, -0.020618882030248642, 0.0195026695728302, -0.0125610725954175, 0.0153662646189332, 0.009566995315253735, -0.0008924748399294913, 0.019306521862745285, 0.024527454748749733, 0.03994525969028473, -0.025188596919178963, 0.00069982442073524, 0.021633531898260117, -0.015039638616144657, -0.00032980251125991344, 0.008762015961110592, 0.008544855751097202, -0.03426692262291908, 0.06092940643429756, -0.004639170132577419, -0.005074027460068464, 0.02769583649933338, 0.010798919945955276, 0.004140652250498533, -0.006237107794731855, 0.0031574370805174112, 0.020765196532011032, -0.021087458357214928, -0.02185547724366188, 0.008797700516879559, 0.028944389894604683, 0.024703631177544594, 0.025322474539279938, 0.004037653561681509, 0.012347067706286907, -0.006116516888141632, 0.03062574751675129, 0.0058174398727715015, -0.01494645792990923, -0.010731139220297337, 0.005077294073998928, -0.002829885808750987, -0.037596866488456726, -0.008438168093562126, 0.0036610926035791636, -0.0022497661411762238, 0.01686459593474865, 0.003754362463951111, -0.034205466508865356, 0.0007046562968753278, -0.012790558859705925, 0.02070453204214573, 0.013561679050326347, -0.005435009486973286, -0.03402150049805641, 0.007642990909516811, -0.008948145434260368, -0.03632446750998497, -0.008339924737811089, -0.0005967853940092027, -0.0035500838421285152, -0.018131425604224205, 0.006475796457380056, -0.00864319410175085, -0.004918867256492376, -0.014471365138888359, 0.006847491953521967, -0.009981834329664707, 0.01887001283466816, 0.008221527561545372, 0.0226068627089262, -0.025461621582508087, 0.0018824466969817877, -0.007272480055689812, -0.017982853576540947, -0.0013165709096938372, -0.013829201459884644, -0.03551841527223587, 0.0036925466265529394, -0.018202774226665497, -0.00677510118111968, -0.009151291102170944, -0.01621309295296669, 0.016692833974957466, 0.02931080013513565, -0.004185928963124752, 0.02180323377251625, -0.022206854075193405, -0.0007068542763590813, 0.0009012030786834657, -0.02373545616865158, -0.026542838662862778, -0.01259869709610939, 0.010399855673313141, -0.017646485939621925, -0.017005793750286102, -0.051050152629613876, -0.02145865187048912, -0.01349412277340889, -0.0043624392710626125, 0.0013348022475838661, 0.010900330729782581, 0.013786000199615955, -0.009239382110536098, 0.017232036218047142, -0.018191557377576828, 0.038260567933321, 0.013168198987841606, 0.01956923119723797, 0.034452974796295166, -0.029384849593043327, 0.060462094843387604, 0.01813216134905815, -0.0047706132754683495, 0.003601803444325924, -0.01623787172138691, 0.02880333736538887, 0.005803487729281187, 0.027416681870818138, 0.03114391677081585, -0.030517391860485077, 0.0010007994715124369, -0.0016414881683886051, 0.01218839269131422, 0.009093458764255047, -0.050289884209632874, -0.02015652321279049, 0.00025824870681390166, -0.026472456753253937, -0.01550865639001131, 0.005590233951807022, 0.012259566225111485, 0.0062251463532447815, -0.005564541555941105, 0.020733609795570374, 0.012791379354894161, -0.0027879830449819565, -0.04547636955976486, -0.0026126529555767775, -0.027002383023500443, 0.18223032355308533, 0.0006423919694498181, 0.01313166692852974, 0.011081068776547909, 0.0031817688141018152, -0.014005216769874096, 0.011640996672213078, -0.020204495638608932, -0.010489577427506447, -0.01663169264793396, 0.0201101116836071, 0.0187679436057806, 0.03151586279273033, 0.018537240102887154, -0.04613012075424194, 0.0022633513435721397, -0.002884143963456154, -0.00846789125353098, 0.0282294861972332, -0.021429751068353653, -0.01977251097559929, 0.010558515787124634, 0.015711352229118347, 0.016965029761195183, -0.01708051934838295, 0.036880459636449814, -0.03200264275074005, -0.05388214439153671, -0.017530497163534164, -0.026782497763633728, -0.01575506664812565, 0.001320917741395533, 0.007087858393788338, 0.009333853609859943, 0.02877327799797058, 0.030492357909679413, -0.028881410136818886, 0.00279468041844666, 0.021129092201590538, -0.001098698005080223, 0.0137246772646904, 0.020981865003705025, -0.004994760267436504, 0.0005523457657545805, -0.008152194321155548, -0.022028038278222084, 0.0005012784386053681, 0.017870746552944183, -0.036598626524209976, -0.0036344951950013638, 0.010175853967666626, -0.0002519386471249163, -0.03515806794166565, 0.023426780477166176, 0.004097576253116131, 0.020966719835996628, -0.01038823276758194, -0.03462371602654457, -0.0017923432169482112, 0.018466318026185036, -0.027184132486581802, -0.0021765215788036585, -0.015164495445787907, 0.015758199617266655, -0.013500750064849854, 0.025889169424772263, 0.027559172362089157, 0.009929775260388851, 0.011107798665761948, -0.009871803224086761, -0.026856007054448128, -0.00019802560564130545, -0.007711546961218119, 0.022622060030698776, -0.03842221945524216, 0.006864345632493496, -0.0070350500755012035, 0.0010980051010847092, 0.0019891904667019844, 0.013118178583681583, 0.0322541780769825, 0.012533499859273434, -0.019673744216561317, -0.01272205263376236, 0.022133342921733856, -0.016480324789881706, -0.01776956394314766, -0.00690764095634222, -0.005799632519483566, -0.007904424332082272, -0.0024665372911840677, -0.005377682391554117, -0.022656992077827454, 0.029479864984750748, -0.008594496175646782, -0.013045349158346653, 0.02534569799900055, -0.004486964084208012, -0.012235085479915142, 0.002664815867319703, 0.035746365785598755, 0.023617230355739594, 0.013444667682051659, 0.03942229971289635, -0.005027758423238993, -0.005766082555055618, 0.017737364396452904, 0.018299052491784096, 0.011022606864571571, -0.011273498646914959, 0.010101333260536194, -0.00309981731697917, 0.015541234984993935, 0.004837692249566317, -0.013392779044806957, 0.040622346103191376, -0.02393161505460739], [-0.031317293643951416, 0.016035787761211395, 0.0326608270406723, -0.00010963709064526483, 0.0002883175329770893, 0.0184329841285944, 0.01527490559965372, -0.016347112134099007, 0.01128325890749693, -0.012490924447774887, 0.030087152495980263, 0.025535717606544495, 0.008396630175411701, -0.007410535588860512, -0.014438916929066181, -0.014996226876974106, 0.0026098708622157574, 0.011279824189841747, 0.007009783759713173, -0.004131931811571121, -0.05527448654174805, 0.01760670728981495, 0.003255487885326147, -0.028922900557518005, 0.01085298415273428, -0.028912298381328583, 0.007470880635082722, 0.009365489706397057, 0.03220299258828163, -0.02910773642361164, 0.029681026935577393, 0.011095461435616016, -0.0011622430756688118, 0.041766829788684845, 0.0031714264769107103, -0.001496771234087646, -0.029066035524010658, 0.005950267426669598, -0.0041859024204313755, 0.012887958437204361, 0.008367503061890602, 0.0027434304356575012, 0.028320500627160072, -0.02180609479546547, -0.009883330203592777, -0.028252754360437393, -0.014358298853039742, -0.042588744312524796, -0.030179116874933243, -0.030238166451454163, -0.00980645976960659, 0.0022724512964487076, 0.015648791566491127, 0.00540563091635704, -0.005794423166662455, 0.02158963494002819, 0.006000742316246033, -0.0025078437756747007, 0.020007317885756493, 0.015226957388222218, -0.00362380500882864, -0.012947720475494862, 0.0035929519217461348, 0.005015221890062094, 0.05220183730125427, 0.029481016099452972, 0.021832993254065514, 0.012338939122855663, 0.006823744159191847, -0.007071540225297213, 0.01092629972845316, 0.03936246037483215, 0.007256482727825642, -0.03075857274234295, -0.011245958507061005, -0.002157364971935749, 0.014994981698691845, -0.00700881564989686, -0.009160813875496387, -0.019492408260703087, -0.018696308135986328, -0.015006724745035172, -0.014137603342533112, -0.010912111029028893, -0.020296093076467514, 0.030957814306020737, 0.01800762303173542, 0.010244018398225307, -0.004083669278770685, 0.01808171533048153, -0.0027312375605106354, 0.01890302635729313, -0.011878781020641327, -0.008427232503890991, -0.07556416839361191, 0.011360316537320614, 0.018302280455827713, 0.0015049384674057364, -0.014203778468072414, 0.042392436414957047, -0.035840075463056564, -0.01251731812953949, -0.007539763115346432, -0.04979715496301651, 0.009279393590986729, 0.030850745737552643, -0.00018938086577691138, 0.012735121883451939, -0.0131295220926404, -0.01675146073102951, -0.00893991719931364, 0.015427795238792896, 0.030384907498955727, -0.011231668293476105, -0.023472227156162262, -0.01779855601489544, -0.007945368997752666, -0.009734823368489742, 0.0030195091385394335, -0.032684843987226486, -0.01512181293219328, -0.033894360065460205, -0.026571229100227356, 0.005305593367666006, -0.020481934770941734, -0.023201080039143562, -0.03513982892036438, -0.006889156065881252, -0.03618880361318588, 0.009967419318854809, -0.006565008778125048, 0.01955634169280529, -0.015716420486569405, 0.0107271121814847, 0.01159126777201891, 0.0011270309332758188, 0.02463981881737709, -0.03018687479197979, -0.0046155634336173534, 0.02807885780930519, -0.011420120485126972, 0.002813373226672411, 0.004230098333209753, -0.0005100575508549809, -0.0316801480948925, 0.06416825950145721, -0.013307446613907814, -0.0038939709775149822, 0.018361588940024376, 0.004106379114091396, 0.0010973718017339706, 0.009972766041755676, 0.02404971979558468, 0.0027522454038262367, -0.012348304502665997, -0.0142828905954957, 0.0071568298153579235, 0.030177785083651543, 0.027067692950367928, 0.025291576981544495, -0.005157341714948416, 0.0037000817246735096, -0.005410756450146437, 0.03673899918794632, 9.770259202923626e-05, -0.016409460455179214, 0.002357445191591978, -0.001997272949665785, 0.004165827762335539, -0.03040412813425064, -0.0005636950954794884, -0.002781833289191127, -0.008330721408128738, 0.02214001677930355, 0.011771594174206257, -0.005547169595956802, -0.002748871222138405, -0.009137585759162903, 0.02445991151034832, 0.011364071629941463, 0.0035192559007555246, -0.03225117549300194, 9.181832137983292e-05, -0.03224894031882286, -0.023883996531367302, 0.02094567008316517, 0.0006269591394811869, -0.038250673562288284, -0.02949543111026287, -0.0006399261765182018, -0.0062172007746994495, -0.0029682081658393145, -0.011171333491802216, 0.001442665932700038, -0.007248166482895613, 0.01144888810813427, -0.0013964034151285887, 0.015635298565030098, -0.02597156912088394, -0.001873144879937172, -0.015312667936086655, -0.01527439896017313, 0.018700258806347847, -0.0287080816924572, -0.03413772955536842, 0.037092071026563644, -0.011067654006183147, -0.02177252247929573, -0.009934581816196442, -0.010762312449514866, 0.021579697728157043, 0.011980554088950157, -0.0019124345853924751, 0.023385928943753242, -0.00836361013352871, 0.014642659574747086, 0.003159058978781104, -0.03387075290083885, -0.02501927688717842, -0.007313747424632311, -0.006126133259385824, -0.024322805926203728, -0.0223388634622097, -0.04977640509605408, -0.012136709876358509, -0.011801697313785553, -0.008048570714890957, 1.019707451632712e-05, 0.017198510468006134, -0.011408754624426365, -0.005892853252589703, 0.007707106415182352, -0.014616676606237888, 0.035715896636247635, 0.009897240437567234, 0.028166955336928368, 0.017893441021442413, -0.008190987631678581, 0.06599964201450348, 0.03495930880308151, -0.003306072438135743, -0.004206985700875521, -0.013141307979822159, 0.008369947783648968, 0.026856232434511185, 0.03342679888010025, 0.027171790599822998, -0.026181012392044067, 0.005367450416088104, -0.000128980798763223, 0.01877601444721222, 0.01451070886105299, -0.04545802250504494, -0.009723976254463196, -0.005253999959677458, 0.006758448202162981, -0.023270823061466217, 0.012275823391973972, 0.017824674025177956, -0.0070790559984743595, -0.007733153644949198, 0.015902526676654816, 0.024959107860922813, 0.0038444348610937595, -0.02963094413280487, -0.03141853213310242, -0.015644116327166557, 0.1685703694820404, 0.006034913472831249, 0.02194400131702423, 0.011279747821390629, 0.0048588961362838745, -0.01188021432608366, 0.01232220884412527, -0.011232576332986355, -0.008269776590168476, -0.02182791940867901, 0.020914485678076744, 0.005490087904036045, 0.027755269780755043, 0.025731518864631653, -0.047971460968256, -0.0004733490932267159, 0.0040467181243002415, -0.0038166458252817392, 0.037397969514131546, -0.02641763538122177, -0.0025584790855646133, 0.021757444366812706, 0.014995980076491833, 0.010569688864052296, -0.0015455776592716575, 0.031370118260383606, -0.007997432723641396, -0.026132792234420776, -0.00975966826081276, -0.02407720871269703, -0.011756853200495243, 0.014124417677521706, -0.0012327040312811732, 0.00952150858938694, 0.030057059600949287, 0.02657109685242176, -0.02986634336411953, 0.00994731206446886, 0.0248396098613739, -0.01855376549065113, -0.010363942943513393, 0.016968339681625366, 0.008462058380246162, -0.005300943274050951, -0.012597342021763325, -0.01393730565905571, 0.012283406220376492, 0.019626807421445847, -0.03712735325098038, -0.004410850815474987, 0.012230907566845417, -0.009932579472661018, -0.02793576754629612, 0.019025349989533424, 0.007217027246952057, 0.021840807050466537, -0.00841642264276743, -0.020617084577679634, -0.021979589015245438, 0.016090836375951767, -0.02736874483525753, -0.0022618668153882027, -0.008224987424910069, 0.02155458740890026, -0.016545841470360756, 0.017564211040735245, 0.037931978702545166, 0.017158519476652145, 0.02028072066605091, -0.0005247106309980154, -0.02587118186056614, 0.003043220844119787, -0.002876164158806205, 0.01735396310687065, -0.016267362982034683, 0.006314089521765709, -0.012764777056872845, -0.004698360338807106, -0.0004206232842989266, -0.006180666387081146, 0.02814587764441967, 0.01988162286579609, -0.004724991042166948, -0.016128674149513245, 0.017795315012335777, -0.003949442878365517, -0.02372409962117672, -0.0063668531365692616, -0.007340021897107363, -0.012892045080661774, -0.0010419943137094378, 0.009644481353461742, -0.020994678139686584, 0.02876165881752968, -0.017544995993375778, -0.035301972180604935, 0.028069982305169106, 0.0020479680970311165, -0.0054220519959926605, -0.004543409217149019, 0.044317785650491714, 0.02597179263830185, 0.020993100479245186, 0.0359286330640316, -0.004452301189303398, -0.01342784147709608, 0.017225604504346848, 0.00766683928668499, -0.0031416486017405987, -0.0038639316335320473, -0.02024226263165474, -0.012182610109448433, 0.027705037966370583, -0.007401003502309322, -0.010828379541635513, 0.03790908679366112, -0.02438986860215664], [-0.02467583306133747, 0.013802965171635151, 0.030717279762029648, 0.01847466267645359, -0.005861416459083557, 0.005628703162074089, 0.011577541939914227, -0.021448049694299698, 0.011753298342227936, -0.017031140625476837, 0.020189501345157623, 0.025782233104109764, 0.005423041060566902, -0.02150478959083557, -0.024254227057099342, -0.014623916707932949, 0.019521519541740417, 0.0351007878780365, 0.02480212226510048, -0.02963012270629406, -0.04942209646105766, 0.01974654197692871, 0.009858331643044949, -0.020027315244078636, -0.005701761227101088, -0.02691071853041649, 0.0054506780579686165, 0.001443503308109939, 0.029133640229701996, -0.03215641528367996, 0.021176164969801903, 0.008854910731315613, -0.004621654283255339, 0.02172188274562359, 0.0026848181150853634, 0.0025059429462999105, -0.0038593632634729147, -0.006717170588672161, -0.02037271298468113, -0.013110318221151829, 0.008675528690218925, -0.021598229184746742, 0.029222117736935616, 0.011484146118164062, -0.0017516874941065907, -0.018931373953819275, 0.0009797342354431748, -0.03123258240520954, -0.025593839585781097, -0.039558105170726776, -0.00486723193898797, -0.0036439744289964437, 0.036738693714141846, 0.011169719509780407, 0.004701787140220404, 0.014168456196784973, 0.009395117871463299, -0.00575966015458107, 0.031511351466178894, 0.01831464096903801, 0.010633007623255253, -0.004799906630069017, 0.0035984020214527845, 0.006095769815146923, 0.04627229645848274, 0.030364781618118286, 0.013302349485456944, 0.00415173452347517, 0.015584870241582394, -0.0009804400615394115, 0.016662830486893654, 0.01968100108206272, -0.006000692956149578, -0.01854110322892666, -0.005987315438687801, -0.008990942500531673, 0.021173274144530296, -0.014092201367020607, -0.0028591672889888287, -0.020778251811861992, -0.009305681101977825, -0.017260240390896797, 0.0032830345444381237, -0.01673717051744461, -0.023500746116042137, 0.009249978698790073, 0.022919602692127228, 0.038388293236494064, -0.008965279906988144, 0.0018185984808951616, -0.016296744346618652, 0.009158117696642876, -0.012523520737886429, 0.025916889309883118, -0.06909993290901184, 0.028431452810764313, 0.012917041778564453, 0.005339883267879486, -0.018398519605398178, 0.041828982532024384, -0.03635234385728836, 0.007562937680631876, -0.00035366235533729196, -0.04382799193263054, 0.011629692278802395, 0.022354651242494583, -0.0028509125113487244, -0.004741314332932234, -0.006784014403820038, -0.014524473808705807, -0.018491102382540703, 0.030820874497294426, 0.035159632563591, -0.01210410799831152, -0.014708379283547401, -0.020299891009926796, -0.010721703059971333, -0.007088076323270798, 0.006535056047141552, -0.033507347106933594, -0.006838114000856876, -0.02100842073559761, -0.012448687106370926, 0.018073275685310364, 0.0011388960992917418, -0.01516066212207079, -0.031217610463500023, 0.0017099791439250112, -0.047906819730997086, 0.0002417374780634418, -0.001245032879523933, 0.024331727996468544, -0.018925318494439125, 0.00863325409591198, -0.008071214891970158, -0.025168050080537796, -0.0034284046851098537, -0.032347869127988815, -0.01357781421393156, 0.04160752892494202, 0.0035931153688579798, -0.0003880507138092071, -0.00029046699637547135, 0.006005565170198679, -0.027174074202775955, 0.060708437114953995, -0.008572455495595932, -0.011294504627585411, -0.003141985973343253, -0.001676535583101213, 5.7474862842354923e-05, 0.014430561102926731, 0.03429674357175827, -0.005923103541135788, -0.009646897204220295, -0.014222925528883934, 0.0051951115019619465, 0.030117610469460487, 0.026988834142684937, 0.02800702303647995, -0.005711853038519621, 0.003844526596367359, -0.002253534272313118, 0.044912189245224, -0.015973081812262535, -0.014133510179817677, 0.001655916916206479, -0.012201022356748581, 0.0070948670618236065, -0.013163582421839237, 0.004580480046570301, 0.0025966649409383535, -0.009242627769708633, 0.02453121729195118, 0.012282585725188255, 0.00999068096280098, -0.0020770204719156027, -0.005803556647151709, 0.02804442122578621, 0.013631699606776237, 0.016203317791223526, -0.010948638431727886, 0.011705148033797741, -0.03430802747607231, -0.004224913194775581, 0.018079783767461777, 0.01986837573349476, -0.04062884673476219, -0.01946280710399151, -0.006111114751547575, -0.002237539039924741, -0.00198571034707129, -0.005181577056646347, -0.009393563494086266, 0.006744585931301117, 0.01919335313141346, -0.013070647604763508, 0.005534444935619831, -0.024991540238261223, -0.0007641944102942944, -0.021629169583320618, -0.016413666307926178, 0.021999090909957886, -0.030045688152313232, -0.023237155750393867, 0.04230335354804993, -0.002360426587983966, -0.019570179283618927, -0.012748419307172298, -0.005848883185535669, 0.000638732744846493, -0.005713718011975288, -0.0012432124931365252, 0.010783138684928417, -0.01719598099589348, 0.022459423169493675, -0.011285478249192238, -0.029919711872935295, -0.01601468399167061, -0.0019705428276211023, -0.006674420088529587, -0.02672918513417244, -0.024735325947403908, -0.04951681196689606, 0.0001369200908811763, 0.008735798299312592, -0.016856379806995392, 0.0003350251936353743, 0.01551646925508976, -0.026667898520827293, -0.01712925359606743, 0.005970010068267584, -0.008705200627446175, 0.0318119041621685, 0.014844785444438457, 0.029949629679322243, 0.00012827976024709642, 0.004802499897778034, 0.06702583283185959, 0.03343796357512474, 0.001955003710463643, -0.00783836655318737, 0.00028649045270867646, -0.002270740456879139, 0.020865673199295998, 0.03725869208574295, 0.02493172697722912, -0.01497625932097435, 0.0030509247444570065, 0.0017963162390515208, 0.02777821384370327, 0.02357611432671547, -0.03771123290061951, -0.002838719869032502, -0.007589480374008417, 0.020920464769005775, -0.03435149043798447, 0.02674505114555359, 0.01339234784245491, -0.016020288690924644, -0.008287297561764717, 0.006607009097933769, 0.011744897812604904, 0.019740981981158257, 0.0009571913396939635, -0.029384469613432884, 0.0045560323633253574, 0.16487865149974823, 0.005283793900161982, 0.017283612862229347, 0.011040948331356049, 0.014844716526567936, -0.008835626766085625, 0.0051569268107414246, 0.0038547958247363567, -0.003353559412062168, -0.022481214255094528, 0.0226150956004858, -0.009508449584245682, 0.028623173013329506, 0.03339271619915962, -0.022322984412312508, -0.002388778841122985, 0.0198519304394722, -0.0005403209361247718, 0.01609371230006218, -0.012071901001036167, -0.002301075030118227, 0.0324045866727829, 0.012823687866330147, -0.006116731557995081, 0.00812634825706482, 0.021253736689686775, 0.014876135624945164, -0.008157799020409584, -0.016217000782489777, -0.026066601276397705, -0.00592066440731287, 0.01089334487915039, -0.02286956086754799, 0.012525390833616257, 0.04049539938569069, 0.005511264782398939, -0.027011072263121605, 0.010481199249625206, 0.0236996877938509, -0.037231918424367905, -0.03582063689827919, 0.016442526131868362, 0.019037287682294846, -0.009260674938559532, 0.0009638506453484297, 0.003980826120823622, 0.004225113894790411, 0.02100563421845436, -0.035096462815999985, -0.008085881359875202, 0.018220441415905952, -0.010535700246691704, -0.017520543187856674, 0.013548131100833416, 0.005099105648696423, 0.0228111632168293, -0.009301971644163132, -0.004515079781413078, -0.032528817653656006, 0.016992386430501938, -0.020824778825044632, -0.0028916734736412764, 0.00450751930475235, 0.024151863530278206, -0.014142635278403759, 0.009936247020959854, 0.02583121508359909, 0.000873421726282686, 0.004383745603263378, 0.006411144509911537, -0.029618170112371445, 0.004794614855200052, -0.0056164623238146305, 0.013209027238190174, 0.0012218403862789273, 0.002585888374596834, -0.01785389520227909, -0.0037669865414500237, -0.010843330062925816, -0.01885468140244484, 0.02268633432686329, 0.020589089021086693, -0.008463626727461815, -0.012584361247718334, 0.01726696826517582, -0.005105538759380579, -0.03314807265996933, -0.006082853768020868, -0.013313228264451027, -0.00941468682140112, -0.014779596589505672, 0.021118147298693657, -0.019089804962277412, 0.020515933632850647, -0.023426029831171036, -0.028866775333881378, 0.03210045024752617, 0.011310008354485035, 0.005845202598720789, -0.010456384159624577, 0.04387389123439789, 0.021830791607499123, 0.049394454807043076, 0.035404521971940994, -0.018466230481863022, -0.025358788669109344, 0.0062459115870296955, -0.008023490197956562, -0.02172703668475151, 0.0035055545158684254, -0.01139459852129221, -0.02681851014494896, 0.02283760905265808, -0.009141000919044018, 0.009220021776854992, 0.03547858074307442, -0.025968531146645546], [-0.015955723822116852, 0.0015639574266970158, 0.0309908390045166, 0.02795269712805748, -0.011523541063070297, -0.010367287322878838, 0.01140667125582695, -0.0061936830170452595, 0.01099852379411459, -0.024852531030774117, 0.007180382963269949, 0.02210078574717045, -0.0065803308971226215, -0.03880614414811134, -0.03943890705704689, -0.012898688204586506, 0.025743896141648293, 0.028092453256249428, 0.04500709846615791, -0.028399083763360977, -0.04631498083472252, 0.016762493178248405, 0.021628938615322113, 0.002960714278742671, -0.0005798840429633856, -0.005350220482796431, -0.0017072928603738546, -0.021824685856699944, 0.029915161430835724, -0.041575316339731216, 0.009987607598304749, 0.0054182144813239574, -0.00574365071952343, -0.011104414239525795, 0.020022911950945854, 0.014261173084378242, 0.020734872668981552, -0.01282072439789772, -0.03637745976448059, -0.03654621168971062, 0.0033433118369430304, -0.03351166099309921, 0.006143561564385891, 0.017481429502367973, -0.004657081328332424, -0.014986946247518063, -0.005833777133375406, -0.010535908862948418, -0.02064736932516098, -0.02560671605169773, -0.0009469257784076035, -0.005864990409463644, 0.037580184638500214, 0.014123349450528622, 0.006646833848208189, 0.010479769669473171, 0.007482599467039108, -0.003233096096664667, 0.04137973487377167, 0.013258018530905247, 0.016801301389932632, -0.005182649940252304, 0.00440228870138526, 0.005371244624257088, 0.0362580269575119, 0.0053251152858138084, 0.00431041419506073, -0.007043987512588501, 0.00981905311346054, 0.002468895399942994, 0.010950426571071148, -8.126567990984768e-05, 0.010883038863539696, -0.013379507698118687, -0.0016173230251297355, -0.022567706182599068, 0.021826209500432014, 0.0006863711168989539, -0.002140501979738474, -0.022799953818321228, -0.007799795363098383, -0.016047528013586998, 0.00963722076267004, -0.03239401802420616, 0.0002833791950251907, -0.008121291175484657, 0.02721487730741501, 0.04005837440490723, -0.018134769052267075, -1.607759259059094e-05, -0.02159847319126129, 0.0051401155069470406, -0.018158262595534325, 0.042846713215112686, -0.06805034726858139, 0.027209719642996788, 0.009867075830698013, 0.0051397099159657955, -0.023671867325901985, 0.04185379296541214, -0.030569756403565407, 0.027009256184101105, 0.0036081476137042046, -0.0323420874774456, -0.013747970573604107, 0.014312850311398506, 0.0035564496647566557, -0.01870431751012802, -0.0014480695826932788, -0.0129317007958889, -0.00843188725411892, 0.04009973257780075, 0.039280038326978683, -0.010500472038984299, -0.011378618888556957, -0.027040885761380196, -0.010688534006476402, -0.006060323677957058, 0.005129735451191664, -0.03413413465023041, -0.017876461148262024, -0.010329593904316425, -0.0013144867261871696, 0.021544361487030983, 0.026148471981287003, -0.00737654697149992, -0.01409535575658083, 0.010816037654876709, -0.03912659361958504, 0.0018326496938243508, -0.0022304069716483355, 0.02537943795323372, 0.0009768427116796374, 0.004896470811218023, -0.01573031209409237, -0.02509663626551628, -0.010488268919289112, -0.024720219895243645, -0.00868227705359459, 0.05145817995071411, 0.010397554375231266, -0.006673549767583609, -0.009708446450531483, 0.017317164689302444, -0.025665007531642914, 0.058277394622564316, 0.006485619582235813, -0.023265592753887177, -0.0075336629524827, -0.006945874076336622, 0.00248664990067482, 0.0005734993610531092, 0.024810202419757843, 0.007430177181959152, -0.015322219580411911, -0.01965942420065403, 0.0022387185599654913, 0.027902770787477493, 0.02484028786420822, 0.025175105780363083, -0.001592927728779614, 0.008306699804961681, 0.005561463534832001, 0.052789073437452316, -0.02363649569451809, -0.017145121470093727, -0.009771203622221947, -0.017056168988347054, 0.004169234540313482, -0.004063054919242859, 0.000868881877977401, 0.004833841696381569, -0.007814697921276093, 0.018248621374368668, 0.0009511643438600004, -0.0041877892799675465, -0.0024794305209070444, -0.0052778106182813644, 0.024859566241502762, 0.023443683981895447, 0.0223177969455719, 0.002378310775384307, 0.02902117185294628, -0.011812369339168072, 0.007257876917719841, -0.014600505121052265, 0.029389461502432823, -0.010165923275053501, 0.0018650249112397432, -0.011754786595702171, 0.000839384738355875, -7.270502101164311e-05, 0.0034331732895225286, -0.015593503601849079, 0.012249077670276165, 0.02462576888501644, -0.008969302289187908, 0.003980754874646664, -0.01812519133090973, -0.005298412870615721, -0.027723047882318497, -0.021630939096212387, 0.00954105518758297, -0.019964314997196198, -0.019205139949917793, 0.017183838412165642, 0.004386608954519033, -0.0012341761030256748, -0.011537943966686726, -0.001111010555177927, -0.02305762842297554, 0.0015563077758997679, -0.01372575294226408, -0.0015351547626778483, -0.03623160719871521, 0.016257932409644127, -0.02307099662721157, -0.015014094300568104, -0.01099734753370285, 0.0023583052679896355, 0.0020059614907950163, -0.0303973201662302, -0.024964021518826485, -0.05224880948662758, 0.01286512054502964, 0.0191959161311388, -0.01987713947892189, 0.0029065830167382956, 0.0076678055338561535, -0.006531266961246729, -0.02845502644777298, 0.006517785135656595, -0.0020643286406993866, 0.02553398162126541, 0.018592286854982376, 0.023694897070527077, -0.004435426089912653, 0.0008359310450032353, 0.06223991885781288, 0.006469401530921459, 0.005527941510081291, 0.004539506509900093, 0.0166315920650959, 0.005226275883615017, -0.0026726131327450275, 0.036101263016462326, 0.023062849417328835, -0.008060152642428875, -0.006948631256818771, 0.003151336219161749, 0.02926352433860302, 0.03284936025738716, -0.030453307554125786, -0.0017431407468393445, -0.00685686944052577, 0.0003193629963789135, -0.04377233609557152, 0.031557295471429825, 0.0011981342686340213, -0.016512243077158928, -0.01233704574406147, 0.002891476498916745, -0.007290310226380825, 0.021977046504616737, 0.013978569768369198, -0.0014545348240062594, 0.009890465997159481, 0.16804203391075134, 0.0019896544981747866, -0.0010743215680122375, 0.011206001043319702, 0.0200251042842865, -0.007597710005939007, -0.0041557857766747475, 0.015542951412498951, -0.0022008540108799934, -0.024151060730218887, 0.022045360878109932, -0.00877479650080204, 0.02747039496898651, 0.040616024285554886, 0.0028757688123732805, 0.003035081084817648, 0.028973018750548363, -0.01046046707779169, -0.007776754908263683, 0.0036128638312220573, -0.011343131773173809, 0.038348350673913956, 0.011491618119180202, -0.014926706440746784, 0.010332128964364529, 0.012769784778356552, 0.014221529476344585, -0.013175344094634056, -0.030196508392691612, -0.0259625855833292, 0.0034032538533210754, -0.00198527704924345, -0.031057894229888916, 0.018079858273267746, 0.04425906389951706, -0.006766755599528551, -0.023402614519000053, 0.010331687517464161, 0.012628056108951569, -0.030874600633978844, -0.024961134418845177, 0.01586783118546009, 0.009988617151975632, -0.013414500281214714, 0.011598991230130196, 0.010066598653793335, -0.015500283800065517, 0.014965973794460297, -0.036695513874292374, -0.01712883450090885, 0.01577635295689106, -0.0016675936058163643, -0.00669876579195261, 0.01323296781629324, 0.0029496503993868828, 0.022553876042366028, -0.009131434373557568, -0.008315256796777248, -0.018349971622228622, 0.010976948775351048, -0.00605875113978982, -0.005013052839785814, 0.01372278481721878, 0.02033318020403385, -0.010884350165724754, 0.0069951461628079414, 0.010446731932461262, -0.02265199087560177, -0.01824580319225788, 0.002554291859269142, -0.02842700108885765, 0.007047212217003107, -0.007581308018416166, 0.016368040814995766, -0.006022648420184851, 0.0022939881309866905, -0.01583649404346943, 0.009046481922268867, -0.016021298244595528, -0.008507762104272842, 0.02026788704097271, 0.01608722098171711, -0.02317137084901333, -0.0027348920702934265, 0.011493298225104809, -0.014769849367439747, -0.0315902978181839, -0.005820315796881914, -0.020021658390760422, -0.005671143531799316, -0.03291529789566994, 0.014611482620239258, -0.019147289916872978, 0.012724468484520912, -0.02737053856253624, -0.010224071331322193, 0.036951012909412384, 0.021653613075613976, 0.015372039750218391, -0.009497909806668758, 0.031141122803092003, 0.02340072952210903, 0.06548554450273514, 0.02854076959192753, -0.025670791044831276, -0.028970196843147278, -0.011145317927002907, -0.01931186020374298, -0.020718218758702278, -0.001620219205506146, 0.022623473778367043, -0.03273432329297066, 0.003225252963602543, -0.009731428697705269, 0.024720575660467148, 0.03542017191648483, -0.02529287338256836], [-0.005768961738795042, -0.007191448472440243, 0.025843285024166107, 0.024088777601718903, -0.009998884983360767, -0.01427881233394146, 0.015091011300683022, 0.013292687945067883, 0.015299445949494839, -0.02533593215048313, -0.005530672147870064, 0.018071897327899933, -0.009312432259321213, -0.03644486516714096, -0.04077259078621864, -0.013444049283862114, 0.017388874664902687, 0.00029115317738614976, 0.05894600972533226, -0.004279045388102531, -0.043260008096694946, 0.013877134770154953, 0.03074844367802143, 0.013859502971172333, 0.021458525210618973, 0.004357425961643457, -0.0017043036641553044, -0.036526232957839966, 0.034236736595630646, -0.03969215974211693, 0.003288905369117856, -0.0006320945103652775, -0.0038970215246081352, -0.01834680885076523, 0.03147605061531067, 0.018241403624415398, 0.021138405427336693, -0.010865781456232071, -0.03098132647573948, -0.025359485298395157, -0.002702647354453802, -0.022386841475963593, -0.005851446185261011, -0.007528913673013449, -0.01736259087920189, -0.019608324393630028, -0.0226605162024498, -0.004741709679365158, -0.007714582607150078, 0.003988948184996843, 0.002535915235057473, -0.005074107088148594, 0.012951117940247059, 0.009812027215957642, -0.00485357316210866, 0.011545874178409576, 0.000862235261593014, 0.0030456283129751682, 0.03734937682747841, 0.004423364996910095, 0.013130933977663517, -0.012588589452207088, 0.007787809241563082, 0.007009595632553101, 0.026891497895121574, -0.010577686131000519, 0.004848629701882601, -0.015855764970183372, 0.0006539742462337017, -0.0028269884642213583, 0.0023112387862056494, 0.007636428810656071, 0.038242414593696594, -0.0291275717318058, 0.0012557815061882138, -0.022645099088549614, 0.026069767773151398, 0.021527377888560295, -0.00614036014303565, -0.015140647999942303, -0.008879531174898148, -0.007129801902920008, 0.0007768585928715765, -0.042059846222400665, 0.01896321028470993, -0.01737935282289982, 0.026892371475696564, 0.016195643693208694, -0.02210080623626709, 0.017511386424303055, -0.026516370475292206, 0.016105419024825096, -0.02144748717546463, 0.0254367683082819, -0.07034098356962204, 0.009930756874382496, 0.010052873753011227, 0.0009699633810669184, -0.028602732345461845, 0.04404374957084656, -0.012111624702811241, 0.026687905192375183, 0.008047528564929962, -0.019077420234680176, -0.031959012150764465, 0.027698401361703873, 0.012365994043648243, -0.003363336669281125, 0.0009485042537562549, -0.012794435024261475, 0.015226682648062706, 0.03662410378456116, 0.045663584023714066, -0.010009689256548882, -0.016298575326800346, -0.029736436903476715, -0.005493334494531155, -0.00928887352347374, 0.0003014670219272375, -0.030712798237800598, -0.034650884568691254, -0.009565943852066994, -0.006655920296907425, 0.00919825118035078, 0.032805152237415314, -0.010081421583890915, -0.008207309991121292, 0.011916659772396088, -0.02050923928618431, 0.01550228800624609, -0.0011584111489355564, 0.025089753791689873, 0.016239777207374573, 0.005462793633341789, -0.004216472618281841, -0.0012269087601453066, 0.013362294994294643, -0.013758741319179535, 0.0012395549565553665, 0.058817990124225616, 0.006860233377665281, -0.00213674851693213, -0.01866949163377285, 0.02213515341281891, -0.020945727825164795, 0.0554642491042614, 0.01651051640510559, -0.019257832318544388, 0.016821030527353287, -0.018115581944584846, 0.004239681642502546, -0.012774640694260597, 0.00674479128792882, 0.028373796492815018, -0.021577514708042145, -0.020139986649155617, 0.002123464597389102, 0.026294056326150894, 0.01942014880478382, 0.02043733187019825, 0.004285260569304228, 0.00870981253683567, 0.013560022227466106, 0.059807054698467255, -0.014998837374150753, -0.016267359256744385, -0.01608174853026867, -0.02190914936363697, -0.004029917996376753, -0.00629983888939023, -0.004343803972005844, 0.007131133694201708, -0.00093291379744187, 0.006718155462294817, -0.01176453847438097, -0.022403748705983162, 0.0024194917641580105, 0.00038275611586868763, 0.016309039667248726, 0.030733704566955566, 0.025380108505487442, -0.0012335249921306968, 0.03647897019982338, 0.012316128239035606, 0.0013167920988053083, -0.034345414489507675, 0.01704304851591587, 0.01506088674068451, 0.011657241731882095, -0.006889522075653076, 0.0010426436783745885, 0.0036284159868955612, 0.010248801670968533, -0.008370818570256233, 0.010329538024961948, 0.025791596621274948, 0.009144265204668045, 0.01673116534948349, -0.009515658020973206, -0.009889453649520874, -0.029186591506004333, -0.02107202261686325, -0.002068407367914915, -0.01813340373337269, -0.017427947372198105, -0.00484360521659255, 0.004860543645918369, 0.011466273106634617, -0.0065447003580629826, -0.001988328993320465, -0.020682884380221367, 0.02400410734117031, -0.027191409841179848, 0.003419192275032401, -0.03065025806427002, -0.0003226666303817183, -0.021457698196172714, -0.008932261727750301, -0.0023198076523840427, 0.0010370740201324224, 0.014337983913719654, -0.024588678032159805, -0.020062478259205818, -0.04771546274423599, 0.020517051219940186, 0.01990179903805256, -0.012383212335407734, 0.009278842248022556, 0.0033481670543551445, 0.024451304227113724, -0.021277235820889473, 0.015462366864085197, 0.003763092216104269, 0.020641610026359558, 0.015588776208460331, 0.01660970412194729, 0.0018717384664341807, -0.012082976289093494, 0.05284646525979042, -0.015171772800385952, 0.008586597628891468, 0.01889628730714321, 0.01409520860761404, 0.022765889763832092, -0.017846915870904922, 0.035238057374954224, 0.026655735448002815, 0.001927894656546414, -0.008099752478301525, 0.001680333516560495, 0.0251875352114439, 0.04571608081459999, -0.022113708779215813, -0.0028136468026787043, 0.003446239745244384, -0.03442423418164253, -0.04952549189329147, 0.021617060527205467, -0.004953562747687101, -0.011859776452183723, -0.009065674617886543, 0.0050071896985173225, -0.015864266082644463, 0.005921732634305954, -0.0024640467017889023, 0.021059393882751465, -0.00078074901830405, 0.1727437973022461, -0.002737694885581732, -0.014540618285536766, 0.013772089034318924, 0.02011178620159626, -0.008096493780612946, -0.0024806824512779713, 0.02217811718583107, 0.0020638301502913237, -0.029296426102519035, 0.024446360766887665, 0.007183436304330826, 0.02413724735379219, 0.04558853060007095, 0.0028296017553657293, 0.007350077852606773, 0.025952238589525223, -0.007728428579866886, -0.0031256573274731636, -0.0017223956529051065, -0.015650592744350433, 0.040353477001190186, 0.019390013068914413, -0.007323086261749268, 0.008366973139345646, 0.01610449329018593, -0.006182121112942696, -0.03460383787751198, -0.0353759229183197, -0.027978982776403427, 0.01662413589656353, -0.005151019897311926, -0.01562747173011303, 0.018681174144148827, 0.0401114821434021, 0.0025843377225100994, -0.025650037452578545, 0.008785529993474483, 0.012824758887290955, -0.0034179100766777992, 0.010521998628973961, 0.010258561000227928, -0.004347131587564945, -0.0165869053453207, 0.016108551993966103, -0.0018951750826090574, -0.025615358725190163, 0.007754980586469173, -0.045033782720565796, -0.01822810433804989, 0.01414636243134737, 0.0009699530201032758, -0.005217928439378738, 0.016578391194343567, 0.00683043897151947, 0.019744303077459335, -0.003856873605400324, -0.020818069577217102, 0.006596341263502836, 0.0007689258782193065, 0.007179539185017347, -0.0035361414775252342, 0.015494199469685555, 0.0056284647434949875, -0.006163725163787603, 0.0032691776286810637, 0.002719400217756629, -0.021490439772605896, -0.022634152323007584, -0.007574670948088169, -0.021197644993662834, 0.010168816894292831, -0.005881994962692261, 0.0190045777708292, -0.027641717344522476, 0.0027675519231706858, -0.007215240504592657, 0.01535688154399395, -0.013073249720036983, 0.014298452995717525, 0.019247161224484444, 0.0049738166853785515, -0.03442283719778061, 0.00732269324362278, 0.009165816009044647, -0.02285442128777504, -0.02266629785299301, -0.009279679507017136, -0.02507024072110653, -0.0006400903803296387, -0.03902680426836014, -0.006031173747032881, -0.016948148608207703, 0.012327213771641254, -0.021716773509979248, 0.003930134233087301, 0.04399485141038895, 0.030838992446660995, 0.014284619130194187, -0.007596262730658054, 0.020985420793294907, 0.03137216344475746, 0.05435891076922417, 0.02861652709543705, -0.014653651975095272, -0.0167239923030138, -0.0029453157912939787, -0.011400853283703327, -0.0034832421224564314, -0.018752561882138252, 0.03825625032186508, -0.021203594282269478, -0.006943174637854099, -0.005901024676859379, 0.025536226108670235, 0.03300086408853531, -0.022543953731656075], [-0.013138326816260815, -0.0017738896422088146, 0.026758041232824326, 0.0158330537378788, -0.005956578068435192, -0.0030944007448852062, 0.018640665337443352, 0.00824364461004734, 0.015904750674962997, -0.019983403384685516, -0.012525477446615696, 0.015548056922852993, -0.00031836319249123335, -0.013043605722486973, -0.03684680536389351, -0.016701441258192062, -0.0027140318416059017, -0.013063941150903702, 0.06264963746070862, 0.012283023446798325, -0.046655647456645966, 0.012602344155311584, 0.02936917543411255, -0.0011486447183415294, 0.028434578329324722, -0.005601101089268923, 0.011768936179578304, -0.03240743279457092, 0.03237408772110939, -0.029956990852952003, 0.0022196476347744465, -0.0024038716219365597, -0.0017277051229029894, 0.009237885475158691, 0.01840301789343357, 0.010077117010951042, -0.006252451334148645, -0.0009348586318083107, -0.012100825086236, 0.005580104887485504, -0.002350156893953681, -0.001027567544952035, 0.003367135999724269, -0.0407133623957634, -0.012483655475080013, -0.030509229749441147, -0.02830813080072403, -0.015646185725927353, -0.005460056941956282, 0.01761934533715248, 0.004402472637593746, -0.005608426872640848, -0.002858994994312525, -0.00022283627185970545, -0.021445022895932198, 0.010915886610746384, -0.009056352078914642, 0.007533024996519089, 0.02185470052063465, -0.008668528869748116, 0.0037515657022595406, -0.011867042630910873, 0.0067885154858231544, 0.007081469986587763, 0.020031897351145744, -0.003855047281831503, 0.01798500120639801, -0.019967276602983475, -0.0070727975107729435, -0.012393678538501263, -0.0068106139078736305, 0.03600940853357315, 0.04044196382164955, -0.04429512843489647, -0.0006918235449120402, -0.0160928126424551, 0.025933366268873215, 0.026348348706960678, -0.014301832765340805, -0.006172336637973785, -0.010146777145564556, 0.0016335784457623959, -0.013426273129880428, -0.04779326543211937, 0.017648516222834587, 0.0005199924344196916, 0.015390316024422646, -0.0035492368042469025, -0.025188205763697624, 0.032032813876867294, -0.03008219040930271, 0.03179793804883957, -0.023272225633263588, -0.006480600219219923, -0.07336806505918503, -0.007725335657596588, 0.0030364072881639004, -0.0035197248216718435, -0.029340017586946487, 0.044388897716999054, -0.004959214013069868, 0.008142388425767422, 0.01276476588100195, -0.01609409786760807, -0.021809468045830727, 0.05013182759284973, 0.015910139307379723, 0.016994062811136246, -0.0024492491502314806, -0.012790735810995102, 0.021815117448568344, 0.022414742037653923, 0.0471578873693943, -0.009471765719354153, -0.02633325383067131, -0.03208717331290245, 0.0014206899795681238, -0.010842176154255867, 0.000870639574714005, -0.02356317825615406, -0.031973063945770264, -0.015244773589074612, -0.019859878346323967, -0.008805928751826286, 0.005561750382184982, -0.022196002304553986, -0.018919387832283974, 0.0022681441623717546, -0.004886829759925604, 0.022274121642112732, -0.0015025718603283167, 0.02159428410232067, 0.009440981782972813, 0.013586370274424553, 0.01823391206562519, 0.016983436420559883, 0.03677207604050636, -0.0010964673710986972, 0.00471872603520751, 0.05736163258552551, -5.6138062063837424e-05, 0.0026545505970716476, -0.02431599795818329, 0.011117436923086643, -0.016103941947221756, 0.05147712305188179, 0.006524223368614912, -0.0027252414729446173, 0.03966959938406944, -0.028258390724658966, -0.002174221910536289, -0.008016969077289104, -0.0002290878037456423, 0.032817550003528595, -0.021293366327881813, -0.020505351945757866, -0.007790771313011646, 0.021708067506551743, 0.006199624389410019, 0.013742398470640182, 0.004199577029794455, 0.0031896987929940224, 0.01639765501022339, 0.06412004679441452, -0.003985924180597067, -0.016645019873976707, -0.012560687027871609, -0.019749382510781288, -0.002235719468444586, -0.011230766773223877, -0.0043320790864527225, -0.0003551660629455, -0.0018561433535069227, -0.0018166184891015291, -0.01439058966934681, -0.025237945839762688, 0.003993148449808359, 0.008801908232271671, 0.01104349922388792, 0.030191238969564438, 0.027194831520318985, -0.024358147755265236, 0.028480736538767815, 0.0011791656725108624, -0.016584476456046104, -0.019769813865423203, -0.008578453212976456, 0.010045407339930534, -0.0045706299133598804, -0.0012083835899829865, -0.0005443023983389139, 0.0014935447834432125, 0.013551164418458939, 4.1198425606125966e-05, 0.0017115897499024868, 0.018394269049167633, 0.0167195126414299, 0.02602100744843483, -0.007701356429606676, -0.010633664205670357, -0.02899106778204441, -0.015474867075681686, -0.002992643043398857, -0.024464076384902, -0.02094542235136032, -0.001254533650353551, 0.004951915238052607, 0.0065406872890889645, 0.003386031836271286, -0.002427266212180257, -0.002310354495421052, 0.03818370774388313, -0.03689082711935043, 0.013391531072556973, -0.008661788888275623, -0.00831883680075407, -0.008633516728878021, -0.01105465553700924, -0.002313403645530343, -0.002747371094301343, 0.011848310008645058, -0.018858233466744423, -0.009837185963988304, -0.050089169293642044, 0.01627456583082676, 0.0067834812216460705, -0.007863511331379414, 0.01746147871017456, 0.0005947877652943134, 0.03479747846722603, -0.0036059673875570297, 0.01489083468914032, 0.006100201979279518, 0.016790537163615227, 0.007190003525465727, 0.024183105677366257, 0.006335476413369179, -0.014021732844412327, 0.039038434624671936, -0.017553087323904037, 0.012294888496398926, 0.014036941342055798, -0.0038535192143172026, 0.026833564043045044, -0.00855172984302044, 0.03125760331749916, 0.027919374406337738, 0.008997890166938305, -0.0006322555127553642, 0.0006411111680790782, 0.019065415486693382, 0.050562452524900436, -0.018975943326950073, -0.003494189353659749, 0.0027034496888518333, -0.04164605587720871, -0.05539713427424431, 0.011448640376329422, -0.005536168813705444, -0.0026660652365535498, -0.011645209044218063, -0.004184058867394924, 0.0007469764677807689, -0.02088327519595623, -0.02135697565972805, 0.007161728106439114, -0.0152368089184165, 0.1763901263475418, -0.014505897648632526, -0.01641271635890007, 0.019394828006625175, 0.014379927888512611, -0.008138000965118408, -0.0006101873586885631, 0.017344707623124123, 0.0012071557575836778, -0.032175011932849884, 0.021334880962967873, 0.022475454956293106, 0.016180405393242836, 0.04402033984661102, -0.01698063500225544, 0.007858525961637497, 0.011797050945460796, 0.002866603434085846, 0.02694348245859146, -0.013977684080600739, -0.007651699241250753, 0.0381532646715641, 0.026417570188641548, 0.010357965715229511, 0.00850529596209526, 0.019933803007006645, -0.019464481621980667, -0.045143671333789825, -0.028259845450520515, -0.028424397110939026, 0.024319211021065712, 0.0034454900305718184, 0.012568952515721321, 0.017377885058522224, 0.02568959817290306, 0.01933368667960167, -0.026646191254258156, 0.005888871382921934, 0.007368852850049734, 0.018288515508174896, 0.03466980159282684, 0.003979633096605539, -0.015413617715239525, -0.023553552106022835, 0.010476676747202873, -0.015370369888842106, -0.013359064236283302, -0.001122383400797844, -0.05028995871543884, -0.015258580446243286, 0.01773015968501568, -0.00841896329075098, -0.01351985428482294, 0.018877262249588966, 0.012652370147407055, 0.015607975423336029, 0.007087027188390493, -0.021920427680015564, 0.017005810514092445, -0.011380324140191078, 0.013870267197489738, -0.005178599618375301, 0.014650532975792885, -0.005542726255953312, -0.0023847089614719152, 0.004281105473637581, 0.000560415384825319, -3.499807644402608e-05, -0.005526567343622446, -0.01867557317018509, -0.013952151872217655, 0.01026434451341629, -0.0015988266095519066, 0.018200723454356194, -0.03818231448531151, 0.000906098575796932, 0.0009398662950843573, 0.008703208528459072, -0.006750399712473154, 0.02807089500129223, 0.01844443753361702, -0.00281566777266562, -0.035625822842121124, 0.010858877561986446, 0.010086801834404469, -0.013665158301591873, -0.01263278815895319, -0.014570455998182297, -0.02961237169802189, 0.0006149015971459448, -0.02645653299987316, -0.014554811641573906, -0.01571981981396675, 0.022010352462530136, -0.019320465624332428, -0.0037301278207451105, 0.04679993912577629, 0.03248143568634987, 0.005901696160435677, -0.015554155223071575, 0.02244005911052227, 0.03430354222655296, 0.024348756298422813, 0.03128368780016899, 0.007282524835318327, -0.006311511620879173, 0.012776438146829605, -0.0019384316401556134, 0.01141297910362482, -0.03489353135228157, 0.01232723705470562, -0.012391915544867516, -0.002612779149785638, 0.0029203773010522127, 0.01685808226466179, 0.03331730142235756, -0.01938065141439438], [-0.03096843510866165, 0.00754477409645915, 0.025100821629166603, 0.01773555763065815, -0.007798295468091965, 0.006365609355270863, 0.022510433569550514, -0.011883918195962906, 0.016353854909539223, -0.00407096603885293, -0.009581785649061203, 0.012757374905049801, 0.008281045593321323, 0.008865457959473133, -0.03048166260123253, -0.02015603519976139, -0.019680947065353394, -0.0011126695899292827, 0.05635620281100273, 0.0015364866703748703, -0.04462354630231857, 0.009404356591403484, 0.02689874731004238, -0.024206802248954773, 0.012661520391702652, -0.02374824695289135, 0.02199229970574379, -0.024488655850291252, 0.03159327805042267, -0.02086363360285759, 0.0019740441348403692, -0.004034982994198799, -0.0020296599250286818, 0.040705420076847076, -0.01114910189062357, -0.005847360473126173, -0.026165619492530823, 0.002812340622767806, -0.0014263350749388337, 0.01992085389792919, -0.001723962603136897, -0.0016675152583047748, 0.02112688682973385, -0.03961615636944771, 0.00033478758996352553, -0.03469168022274971, -0.011505390517413616, -0.0315592959523201, -0.005687130149453878, 0.002747270278632641, 0.0033038544934242964, -0.008445284329354763, 0.00566511694341898, -0.010557812638580799, -0.029598399996757507, 0.005014596041291952, -0.013288361951708794, 0.006021331064403057, 0.004049626179039478, -0.020993996411561966, -0.0028435303829610348, -0.009458010084927082, 0.005563326179981232, 0.003860953263938427, 0.01626216061413288, 0.011597092263400555, 0.027044760063290596, -0.0163279939442873, -0.00877478625625372, -0.0287841334939003, -0.011651379987597466, 0.052723679691553116, 0.016754699870944023, -0.04467933252453804, -0.0029526918660849333, -0.007542382925748825, 0.02494814060628414, 0.00906748790293932, -0.016887523233890533, -0.0047185299918055534, -0.018542742356657982, 0.010584601201117039, -0.021445684134960175, -0.048356980085372925, -0.004260373301804066, 0.010893038474023342, 0.0066348291002213955, 0.012359749525785446, -0.026581602171063423, 0.024166611954569817, -0.03369305282831192, 0.033168066293001175, -0.02443227358162403, -0.018233614042401314, -0.08049590140581131, -0.0034503431525081396, -0.007782976143062115, -0.0006211530999280512, -0.034160565584897995, 0.04398280382156372, -0.010515661910176277, -0.009659567847847939, 0.01196950301527977, -0.02211468107998371, 0.006025463342666626, 0.05530126765370369, 0.017349211499094963, 0.025320423766970634, -0.0055995783768594265, -0.012987901456654072, 0.006730349268764257, 0.018007978796958923, 0.0437062531709671, -0.006232293322682381, -0.030029894784092903, -0.02813459374010563, 0.0018871172796934843, -0.006031550467014313, -0.00010999025107594207, -0.02035885490477085, -0.01635170355439186, -0.017334939911961555, -0.024549592286348343, -0.0164630189538002, -0.022185027599334717, -0.03473623842000961, -0.03606042265892029, -0.0004868425603490323, -0.004571240395307541, 0.015110761858522892, -0.0035626362077891827, 0.016919206827878952, -0.012839224189519882, 0.02521110698580742, 0.020311549305915833, 0.003240691963583231, 0.03835616260766983, 0.010477997362613678, 0.0014233967522159219, 0.055233463644981384, 0.0031138381455093622, 0.0049761561676859856, -0.02504033036530018, 0.00017120668780989945, -0.009316481649875641, 0.05182276666164398, -0.01641402579843998, 0.0068697454407811165, 0.03692584112286568, -0.03911988064646721, -0.00927016045898199, 0.012318143621087074, 0.004677894059568644, 0.013934132643043995, -0.012708844617009163, -0.021794363856315613, -0.020611397922039032, 0.01823589764535427, -0.0006789809558540583, 0.008068148978054523, 0.004597996361553669, -0.004049118608236313, 0.00791100598871708, 0.06458710134029388, -0.0034259450621902943, -0.01970246434211731, 0.0007370033417828381, -0.02078562043607235, -0.0005652409163303673, -0.013230018317699432, 0.0016711241332814097, -0.005170166492462158, -0.015130856074392796, 0.0008703465573489666, -0.007305351085960865, -0.00537374010309577, 0.0008109627524390817, 0.011648042127490044, 0.010916794650256634, 0.025254664942622185, 0.016090361401438713, -0.03315290808677673, 0.014313907362520695, -0.02431146427989006, -0.025342747569084167, 0.012381372973322868, -0.019740387797355652, -0.023296495899558067, -0.02859462797641754, 0.008344034664332867, -0.0023454255424439907, 0.0008356337202712893, 0.018596403300762177, 0.005626792553812265, 0.002826258772984147, 0.014270611107349396, 0.007772016804665327, 0.026335228234529495, -0.011150714010000229, -0.00752780819311738, -0.026555504649877548, -0.006769054103642702, 0.00921244453638792, -0.04060304909944534, -0.02144927904009819, 0.025478661060333252, 0.005410164128988981, -0.013325288891792297, 0.009106650948524475, -0.005567216780036688, 0.01715104840695858, 0.03203517198562622, -0.03450740873813629, 0.015764625743031502, 0.010251965373754501, -0.004671907052397728, -0.0006616837927140296, -0.026152335107326508, -0.006066395901143551, -0.014089690521359444, -0.0007387224468402565, -0.01170103345066309, -0.004015971906483173, -0.04791579023003578, 0.005482661072164774, 0.0015425828751176596, -0.010031865909695625, 0.028542697429656982, -0.0014012377941980958, 0.014880381524562836, 0.01595614291727543, 0.010306614451110363, 0.007447358220815659, 0.01838403195142746, -1.3538478015107103e-05, 0.037408120930194855, -0.0021249628625810146, -0.00221056817099452, 0.027620192617177963, -0.0008053822675719857, 0.010822081007063389, -0.007776177953928709, -0.014310409314930439, 0.012434283271431923, 0.011319500394165516, 0.023695141077041626, 0.023684868589043617, 0.01210073847323656, 0.0045643518678843975, 3.483119871816598e-05, 0.017170267179608345, 0.050843093544244766, -0.020630648359656334, -0.0009003323502838612, -0.011305529624223709, -0.01899738237261772, -0.05607006326317787, 0.012172847986221313, 0.0011408162536099553, 0.010392335243523121, -0.01597961038351059, -0.014620582573115826, 0.016364408656954765, -0.02265826426446438, -0.021035822108387947, -0.026342958211898804, -0.011832117103040218, 0.17219644784927368, -0.02559315785765648, -0.011019856669008732, 0.026717012748122215, 0.014274428598582745, -0.010352112352848053, 0.0011010634480044246, 0.008943899534642696, -0.0012994981370866299, -0.033971142023801804, 0.017764298245310783, 0.014695120975375175, 0.003075844142585993, 0.03821968659758568, -0.03006312996149063, 0.0038376706652343273, 0.003983533475548029, 0.0182126984000206, 0.04899586737155914, -0.01703677698969841, 0.003525245701894164, 0.026246456429362297, 0.032092731446027756, 0.014315645210444927, 0.014346994459629059, 0.023727336898446083, -0.009435445070266724, -0.03175722807645798, -0.0135267935693264, -0.031813472509384155, 0.029641037806868553, 0.013505919836461544, 0.02271442674100399, 0.00494419177994132, 0.026254646480083466, 0.0203128382563591, -0.031586870551109314, 0.0006350070470944047, 0.008259695023298264, 0.012595023959875107, 0.016710471361875534, 